{"mean": [-62.13627624511719, -61.35780334472656, -59.805885314941406, -58.037269592285156, -56.06369400024414, -54.139564514160156, -52.23747253417969, -50.13173294067383, -48.7149543762207, -47.22599411010742, -46.56663513183594, -46.12852478027344, -46.09572219848633, -46.27787399291992, -46.399940490722656, -46.47468566894531, -46.792388916015625, -47.19084167480469, -48.17194747924805, -48.49905014038086, -49.46873474121094, -49.50761795043945, -49.992713928222656, -50.38142776489258, -51.74011993408203, -52.64162063598633, -51.786705017089844, -51.404945373535156, -53.30938720703125, -55.268882751464844, -55.38013458251953, -55.350135803222656, -54.508216857910156, -56.51949691772461, -58.183353424072266, -59.12300491333008, -57.8528938293457, -60.2902717590332, -62.53414535522461, -64.56698608398438, -64.41223907470703, -64.00590515136719, -62.85282897949219, -63.92301940917969, -64.67882537841797, -65.81391143798828, -67.14913940429688, -68.18402099609375, -69.58280944824219, -70.73617553710938, -72.46775817871094, -73.37146759033203, -73.97095489501953, -74.96772766113281, -75.94242858886719, -77.24617004394531, -78.7574234008789, -80.58136749267578, -81.94599914550781, -84.10609436035156, -86.83634185791016, -90.5262451171875, -92.68535614013672, -95.48216247558594, -18.246511459350586, -0.043864570558071136, -0.0437951534986496, -0.043708790093660355, -0.04359263926744461, -0.0434088297188282, -0.04308445751667023, -0.04260776937007904, -0.042336151003837585, -0.04251522198319435, -0.04154530167579651, -0.040620557963848114, -0.0396263524889946, -0.041416388005018234, -0.04380784183740616, -0.044286102056503296, -0.04546337202191353, -0.046793267130851746, -0.047660719603300095, -0.047192610800266266, -0.044212307780981064, -0.03711814433336258, -0.027967404574155807, -0.020824093371629715, -0.020165733993053436, -0.0206036027520895, -0.016883162781596184, -0.013361153192818165, -0.00965783279389143, -0.0018119738670066, 0.0012423803564161062, 0.00288017513230443, 0.0004104308318346739, -0.008716663345694542, -0.023624394088983536, -0.03587198257446289, -0.04370132088661194, -0.03991248086094856, -0.03069496899843216, -0.008326160721480846, 0.017275242134928703, 0.032292209565639496, 0.043942950665950775, 0.03489794582128525, 0.024534542113542557, 0.034380748867988586, 0.05480850860476494, 0.05444362387061119, 0.05055921524763107, 0.057450149208307266, 0.059082746505737305, 0.035833150148391724, 0.012551156803965569, -0.00335509842261672, 0.003627701662480831, 0.05199147388339043, 0.09553824365139008, 0.10145559906959534, 0.09609074890613556, 0.09049924463033676, 0.07108850032091141, 0.06322924047708511, 0.08330215513706207, 0.0857090950012207], "std": [11.624035835266113, 12.258501052856445, 12.496033668518066, 12.887803077697754, 13.472484588623047, 13.843945503234863, 14.075915336608887, 14.522385597229004, 14.139203071594238, 13.92966365814209, 13.321301460266113, 12.709099769592285, 11.922905921936035, 11.170442581176758, 10.565933227539062, 10.216381072998047, 9.83536434173584, 9.73668098449707, 9.204113960266113, 8.766453742980957, 8.410262107849121, 8.118218421936035, 7.800703048706055, 7.5315117835998535, 7.379621982574463, 7.752635478973389, 6.950436592102051, 7.0434136390686035, 6.832969665527344, 7.468749046325684, 7.279118061065674, 7.1492533683776855, 7.783413410186768, 8.703038215637207, 8.933633804321289, 9.12109088897705, 7.814995765686035, 7.969634056091309, 8.41259765625, 8.24897289276123, 8.454900741577148, 7.739711284637451, 7.884366512298584, 8.095487594604492, 8.35888671875, 8.282536506652832, 8.38390064239502, 8.916176795959473, 9.08710765838623, 8.914949417114258, 9.16982364654541, 8.947013854980469, 9.287527084350586, 9.522539138793945, 9.647643089294434, 9.771029472351074, 9.770715713500977, 9.722089767456055, 9.605857849121094, 9.29177474975586, 8.90030574798584, 8.216950416564941, 7.23635196685791, 5.885673522949219, 4.501397609710693, 8.68677043914795, 8.688231468200684, 8.690186500549316, 8.692809104919434, 8.696311950683594, 8.700998306274414, 8.707525253295898, 8.715564727783203, 8.720245361328125, 8.722319602966309, 8.727385520935059, 8.732912063598633, 8.739179611206055, 8.743974685668945, 8.751195907592773, 8.758267402648926, 8.764867782592773, 8.773585319519043, 8.778955459594727, 8.785843849182129, 8.796462059020996, 8.80807113647461, 8.821707725524902, 8.839051246643066, 8.856790542602539, 8.882840156555176, 8.911853790283203, 8.941739082336426, 8.965494155883789, 8.985215187072754, 9.01709270477295, 9.05557918548584, 9.105427742004395, 9.165668487548828, 9.23402214050293, 9.307069778442383, 9.38629150390625, 9.475210189819336, 9.572352409362793, 9.662842750549316, 9.742977142333984, 9.844465255737305, 9.961342811584473, 10.088516235351562, 10.210474967956543, 10.338417053222656, 10.452661514282227, 10.578088760375977, 10.701760292053223, 10.820853233337402, 10.943832397460938, 11.056361198425293, 11.153055191040039, 11.226149559020996, 11.261345863342285, 11.30163860321045, 11.278864860534668, 11.13582992553711, 10.769942283630371, 10.416584014892578, 10.149060249328613, 9.198869705200195, 8.647333145141602], "layers": [{"weight": [[-0.18988095223903656, -0.09727751463651657, -0.04216644540429115, 0.008006181567907333, -0.005735739599913359, -0.03796355053782463, 0.08041873574256897, 0.03779316693544388, 0.1202709823846817, 0.06690932810306549, 0.025398610159754753, 0.037810083478689194, -0.043826956301927567, -0.011393370106816292, 0.10384295135736465, 0.16741736233234406, -0.0535694845020771, 0.09015859663486481, -0.012337366119027138, 0.04181564971804619, -0.15578553080558777, -0.0654192641377449, -0.08933539688587189, 0.03583301603794098, -0.2576419413089752, 0.020410573109984398, -0.04527166485786438, 0.0972539633512497, 0.07544438540935516, -0.236333966255188, 0.31500983238220215, -0.4423076808452606, -0.06132796034216881, -0.12017374485731125, 0.019273007288575172, 0.07160299271345139, -0.018380705267190933, -0.1612153798341751, -0.2836591601371765, -0.04470401257276535, -0.13236789405345917, -0.30573374032974243, 0.05603067949414253, -0.14594362676143646, 0.18252375721931458, 0.22376053035259247, 0.09598462283611298, 0.10513019561767578, 0.09082551300525665, 0.1329697072505951, 0.010588833130896091, -0.07149042934179306, 0.04772347956895828, 0.03323568031191826, 0.07478600740432739, 0.20267154276371002, 0.19051624834537506, 0.4036368727684021, 0.17106088995933533, 0.21499206125736237, -0.06275706738233566, 0.16992498934268951, 0.07269369810819626, 0.270405650138855, 0.09928310662508011, 0.008968454785645008, 0.06969699263572693, 0.05832666531205177, -0.055147722363471985, 0.04763605818152428, -0.00982033833861351, 0.10376595705747604, -0.03696798160672188, 0.10962628573179245, -0.0019105568062514067, 0.07910331338644028, 0.1359194666147232, 0.12483081221580505, 0.02269972860813141, 0.11023349314928055, 0.09234389662742615, 0.11983204632997513, -0.04201309382915497, 0.012981142848730087, -0.011433334089815617, -0.1356806606054306, -0.21972359716892242, -0.2522094249725342, -0.2287818193435669, -0.16345638036727905, -0.2237565517425537, -0.10861629247665405, -0.1566571742296219, -0.07246984541416168, -0.09632685035467148, 0.06302619725465775, -0.018029270693659782, 0.05862712487578392, -0.058223895728588104, 0.038520075380802155, 0.028942879289388657, -0.060911960899829865, -0.07558093219995499, 0.04709670692682266, -0.08814849704504013, -0.16979645192623138, -0.05661477893590927, -0.041883569210767746, -0.14448769390583038, -0.04177001118659973, 0.08462507277727127, 0.06343061476945877, 0.20099857449531555, 0.1500363051891327, 0.18298646807670593, 0.2621006369590759, 0.1541309803724289, 0.11039072275161743, 0.09591490030288696, -0.04175544157624245, 0.10222966969013214, 0.13823454082012177, 0.16763325035572052, 0.08686214685440063, 0.05160672217607498, 0.19529268145561218, 0.20632141828536987, 0.1325589120388031], [-0.02121511660516262, 0.04406949505209923, 0.00011365653335815296, -0.05457863211631775, -0.07803309708833694, -0.010839809663593769, -0.03321034461259842, -0.002481668023392558, 0.03667758032679558, 0.03853398561477661, 0.029849162325263023, 0.042149338871240616, 0.01861097663640976, -0.01314928475767374, 0.24031196534633636, 0.34659647941589355, -0.01166930515319109, -0.14893358945846558, 0.02969876304268837, -0.06852415949106216, 0.11504147201776505, 0.16404731571674347, -0.07797013223171234, 0.24637869000434875, -0.337446391582489, -0.09654444456100464, -0.06322292238473892, 0.025346789509058, -0.019773490726947784, 0.059080809354782104, -0.13354039192199707, 0.03383803367614746, -0.03742241859436035, 0.09698910266160965, 0.08005863428115845, -0.13451164960861206, -0.005794546566903591, 0.010597015731036663, 0.007089606486260891, -0.2231128066778183, -0.05133138224482536, 0.02364381216466427, -0.10428376495838165, -0.14347746968269348, 0.14155781269073486, 0.2808586359024048, 0.1391419917345047, 0.1773964762687683, -0.09554918110370636, -0.22794696688652039, -0.12204115092754364, 0.17909248173236847, 0.07124428451061249, 0.05633711442351341, -0.034973300993442535, -0.023534590378403664, -0.20519202947616577, 0.1084086000919342, 0.007372388616204262, 0.023567145690321922, -0.00046495284186676145, 0.1698090136051178, -0.01180265937000513, -0.03266531974077225, -0.035755787044763565, -0.004775531589984894, 0.10989666730165482, 0.08916623890399933, 0.13718095421791077, 0.12923391163349152, 0.16710053384304047, 0.21351034939289093, 0.13496370613574982, 0.18805478513240814, 0.23302486538887024, 0.24162723124027252, 0.21195098757743835, 0.2703547775745392, 0.03779953718185425, 0.09694946557283401, 0.0904892310500145, -0.02872891165316105, -0.057693857699632645, 0.09067385643720627, -0.04389987885951996, -0.20061077177524567, -0.17918197810649872, -0.20493103563785553, -0.4565708041191101, -0.5544092059135437, -0.5197908878326416, -0.45074933767318726, -0.23994070291519165, -0.2212187945842743, -0.1250534951686859, 0.060323577374219894, 0.17999348044395447, 0.09899259358644485, 0.06787542253732681, 0.08767777681350708, 0.18961970508098602, 0.172117218375206, -0.022012874484062195, -0.01150277629494667, -0.052017759531736374, -0.18579329550266266, -0.26566043496131897, 0.021424245089292526, 0.12396027892827988, 0.15174098312854767, 0.12924739718437195, 0.17741867899894714, 0.19913077354431152, -0.014122781343758106, 0.011203709989786148, -0.03388308361172676, -0.03869743272662163, -0.041875481605529785, -0.04482722654938698, 0.06791700422763824, 0.06573671102523804, -0.06203891709446907, -0.22409029304981232, -0.08468247205018997, 0.11651096493005753, 0.09149965643882751, 0.26639842987060547, 0.056340835988521576], [-0.006717881187796593, -0.0670863464474678, -0.05353519320487976, 0.009434849955141544, 0.08344816416501999, 0.0593540221452713, 0.034868285059928894, 0.09427309781312943, 0.08860386908054352, -0.04108826071023941, -0.06548196077346802, -0.05806832015514374, -0.04926430433988571, -0.02769608236849308, -0.034405749291181564, -0.03908844292163849, -0.1464400589466095, -0.06387375295162201, -0.07294134050607681, -0.059304118156433105, 0.13563047349452972, 0.07377451658248901, -0.182929128408432, -0.025739511474967003, -0.10012254863977432, -0.18803003430366516, 0.007739734835922718, -0.08994390815496445, -0.22134312987327576, -0.08710099756717682, -0.07932700961828232, 0.04133414849638939, -0.041688110679388046, -0.05077754706144333, -0.09219973534345627, -0.09355789422988892, -0.06221376731991768, -0.10172463208436966, -0.048642996698617935, -0.053896818310022354, -0.00029727868968620896, 0.04726899787783623, 0.17751598358154297, 0.16308148205280304, 0.2330959439277649, 0.27237531542778015, 0.17940135300159454, 0.12273269146680832, 0.08710107952356339, 0.11910848319530487, 0.19104060530662537, 0.07116838544607162, 0.07840676605701447, 0.04445834085345268, 0.10046949237585068, 0.10238142311573029, -0.028602128848433495, -0.16067913174629211, 0.0009476414998061955, -0.07622229307889938, 0.03538528084754944, -0.0534994937479496, -0.11007922142744064, -0.1383710503578186, 0.15781287848949432, -0.05766137316823006, -0.12985436618328094, -0.12786796689033508, -0.0745483934879303, -0.08148445934057236, -0.15628063678741455, -0.0282153207808733, -0.13685192167758942, -0.04575366899371147, -0.23801617324352264, -0.06475622951984406, -0.19631920754909515, -0.24261128902435303, -0.25837427377700806, -0.18970149755477905, -0.17061026394367218, -0.10957171767950058, -0.09995631873607635, -0.08482787758111954, -0.12447450309991837, -0.18438860774040222, -0.06465291231870651, -0.1398199200630188, -0.12383916229009628, -0.09575219452381134, -0.007499282248318195, -0.16208390891551971, -0.18549835681915283, -0.06203620508313179, -0.16659338772296906, -0.12261447310447693, -0.13689489662647247, -0.007078344933688641, -0.15702924132347107, 0.008895049802958965, -0.10535751283168793, -0.10449767857789993, -0.11582665145397186, -0.03987208008766174, -0.16568614542484283, -0.01223970390856266, 0.06439155340194702, 0.007291798945516348, -0.03977951407432556, 0.012506128288805485, -0.11761488765478134, -0.2313639223575592, -0.10841917246580124, -0.07710913568735123, -0.018476756289601326, 0.040406644344329834, 0.04346106946468353, 0.04143894836306572, -0.08216807246208191, -0.01499158050864935, -0.10633601248264313, -0.12049078196287155, -0.014431108720600605, 0.039697568863630295, 0.07658549398183823, -0.11941002309322357, -0.043773554265499115, 0.1357552707195282], [-0.08316387236118317, -0.0400722399353981, 0.03125494718551636, 0.06809211522340775, 0.11749374121427536, 0.1053328588604927, 0.12176601588726044, -0.028864096850156784, 0.07677730917930603, -0.05806896835565567, -0.1075349748134613, -0.2847477197647095, -0.14927850663661957, 0.04150395467877388, 0.16294771432876587, 0.013036544434726238, -0.0011399172944948077, -0.14718088507652283, 0.09941982477903366, 0.08386896550655365, -0.01570846512913704, 0.21379390358924866, -0.1115882620215416, 0.2773438096046448, -0.3157701790332794, -0.3835003972053528, -0.2088669091463089, -0.08067142218351364, -0.11505457013845444, -0.12309496104717255, -0.033755674958229065, -0.3043387234210968, -0.09820868819952011, 0.01995140314102173, 0.12834300100803375, 0.18281662464141846, -0.34222227334976196, -0.10972331464290619, 0.050154909491539, -0.03207656368613243, -0.04808212071657181, -0.11315826326608658, 0.15293516218662262, -0.19633975625038147, 0.09206988662481308, 0.1247079074382782, -0.08959158509969711, 0.09043016284704208, -0.14378724992275238, -0.0009101329487748444, 0.06371752172708511, 0.17720919847488403, 0.4303492605686188, 0.11335751414299011, 0.21807821094989777, 0.12272749841213226, 0.007845696993172169, 0.3711654841899872, 0.05134231597185135, 0.05656864494085312, -0.11901737004518509, -0.3585154712200165, -0.09969870746135712, 0.14808452129364014, -0.13964910805225372, -0.07473412901163101, -0.13583780825138092, -0.17522501945495605, -0.10017316788434982, -0.18764187395572662, -0.20136429369449615, -0.10739998519420624, -0.20779554545879364, -0.14197058975696564, -0.15675203502178192, -0.02318630926311016, -0.14551186561584473, -0.11654874682426453, -0.08561866730451584, -0.1797041893005371, -0.16153620183467865, -0.07176732271909714, -0.01464816927909851, 0.039708130061626434, -0.01778176799416542, -0.07191567867994308, 0.04566649720072746, 0.01662045530974865, -0.04361148923635483, -0.09426767379045486, 0.01652606949210167, -0.07398198544979095, 0.06420043110847473, 0.0037036666180938482, -0.026377644389867783, -0.01499338261783123, 0.05424896255135536, 0.04957346245646477, -0.008375456556677818, -0.0016014522407203913, -0.09552817791700363, -0.08314799517393112, 0.009442199021577835, 0.05004507303237915, 0.06837238371372223, -0.08191937953233719, 0.015186704695224762, 0.03627271577715874, -0.00764160230755806, -0.029401522129774094, 0.060555752366781235, 0.030579056590795517, 0.07193132489919662, 0.2013930380344391, 0.1904330551624298, 0.4251311421394348, 0.4167633056640625, 0.3547133803367615, 0.3415707051753998, 0.08889739215373993, 0.008116726763546467, 0.039084602147340775, 0.094011090695858, 0.10463332384824753, 0.10790044814348221, 0.09550784528255463, 0.17448951303958893, 0.25503861904144287], [0.1673334687948227, 0.08197065442800522, 0.05883309990167618, 0.01100668404251337, 0.10100312530994415, -0.044724591076374054, -0.020186085253953934, -0.1154167577624321, -0.04088087007403374, 0.013711415231227875, 0.07592637091875076, -0.05246162787079811, 0.09140323847532272, 0.10099026560783386, -0.019422104582190514, 0.039197105914354324, 0.1488025039434433, 0.1019153967499733, 0.041652023792266846, 0.040757812559604645, 0.02965027652680874, -0.06535261869430542, 0.01290037576109171, -0.08509795367717743, -0.2129327803850174, -0.10131727904081345, -0.13171538710594177, -0.025879381224513054, -0.11126132309436798, 0.05955617129802704, 0.055088624358177185, 0.11405386030673981, -0.09688261151313782, -0.07405795156955719, -0.059967245906591415, 0.014538528397679329, 0.04165395721793175, 0.06650187820196152, 0.11894522607326508, 0.0810430645942688, 0.1553070843219757, 0.11860092729330063, 0.033390991389751434, -0.035397086292505264, 0.017981240525841713, -0.04193476587533951, -0.06768577545881271, -0.0986175537109375, 0.07474575936794281, -0.0235415231436491, 0.012140783481299877, -0.10720222443342209, -0.11611765623092651, -0.09781825542449951, -0.04593430832028389, 0.10147982835769653, -0.16847795248031616, -0.07887062430381775, 0.02122538723051548, -0.12192613631486893, -0.04771338775753975, -0.09966067969799042, -0.1639707088470459, -0.04986301809549332, 0.026000741869211197, 0.038435786962509155, -0.10243403166532516, -0.07880612462759018, -0.0018696292536333203, -0.007748430594801903, -0.11925314366817474, -0.06351436674594879, -0.04031872749328613, -0.08567899465560913, -0.15739046037197113, -0.05873950570821762, -0.095699742436409, -0.04879535734653473, -0.08829960227012634, -0.02425043284893036, -0.07168339937925339, -0.028157513588666916, -0.08557038009166718, -0.1698777973651886, -0.05678006261587143, -0.016466449946165085, -0.05442088842391968, -0.1634853333234787, -0.18852506577968597, -0.11964719742536545, -0.13353046774864197, -0.0854799747467041, -0.13577359914779663, -0.1666216254234314, -0.10016381740570068, -0.16766977310180664, -0.13046200573444366, -0.08927939832210541, -0.129893496632576, -0.19902846217155457, -0.10542728006839752, -0.08010856807231903, -0.05502842739224434, -0.019311893731355667, 0.010674436576664448, -0.104434534907341, -0.10913103818893433, -0.08044799417257309, -0.06622912734746933, -0.08376124501228333, -0.02191505767405033, -0.02014201693236828, -0.05546968802809715, -0.0077832164242863655, -0.04850303381681442, -0.1564694494009018, -0.09453507512807846, -0.050666939467191696, -0.1649603545665741, -0.011240710504353046, -0.1415989100933075, -0.06112494319677353, 0.10777033120393753, -0.11737287044525146, -0.09726623445749283, -0.2123611867427826, -0.2221463918685913, -0.02874770574271679], [-0.005128894001245499, -0.028463732451200485, 0.024352550506591797, -0.04955175891518593, 0.011426275596022606, 0.012000912800431252, 0.01763509027659893, -0.005732063669711351, -0.058895424008369446, -0.10701766610145569, -0.07730795443058014, 0.041159387677907944, 0.022345826029777527, 0.03639230877161026, 0.03984295576810837, 0.02130667306482792, -0.14709386229515076, 0.13390016555786133, -0.04198136180639267, -0.14843784272670746, 0.0006693003815598786, -0.05357791855931282, -0.02955709770321846, 0.08859311044216156, 0.06365096569061279, -0.05695477873086929, 0.14756232500076294, -0.03738014027476311, 0.036673035472631454, -0.14096666872501373, 0.07689812034368515, -0.027580898255109787, -0.05950887128710747, 0.007792539894580841, -0.023593628779053688, -0.21641641855239868, -0.03595324978232384, 0.01046894583851099, -0.024523308500647545, 0.22705288231372833, -0.09300654381513596, 0.007454550825059414, -0.030712870880961418, 0.010894842445850372, -0.12671400606632233, 0.19633904099464417, -0.13940834999084473, -0.12311215698719025, -0.17914755642414093, -0.09341326355934143, -0.3199428617954254, -0.19499662518501282, -0.00019864510977640748, 0.020151497796177864, 0.2658795714378357, 0.18359322845935822, 0.35039496421813965, 0.2718433737754822, 0.2662641704082489, 0.0904235988855362, -0.14929363131523132, -0.1508130580186844, 0.04618049040436745, -0.01053500734269619, 0.12731976807117462, 0.03273611515760422, -0.11521753668785095, -0.07604818791151047, -0.037822406738996506, -0.03454788401722908, -0.0408116839826107, -0.11316122859716415, -0.10646774619817734, -0.003147067967802286, -0.10244496911764145, -0.09218751639127731, -0.07319212704896927, 0.02445506863296032, 0.03657123073935509, 0.06339246779680252, 0.02138637565076351, -0.026106398552656174, 0.07022448629140854, -0.06260557472705841, -0.04277566075325012, -0.004122515674680471, -0.00957524124532938, 0.02336849644780159, -0.029057804495096207, -0.1380397230386734, -0.053328853100538254, -0.02052612602710724, -0.148402601480484, -0.1103440448641777, -0.022169457748532295, 0.01038299035280943, 0.04654480889439583, -0.04530104994773865, -0.006770795676857233, -0.12908533215522766, -0.1301627904176712, 0.04825974628329277, 0.03706436604261398, 0.14675813913345337, 0.13385608792304993, -0.013973094522953033, 0.13279524445533752, 0.05919727310538292, 0.13305532932281494, -0.0503094345331192, -0.053870800882577896, -0.13193508982658386, -0.19006980955600739, -0.10790906846523285, -0.07226584851741791, -0.05621076747775078, -0.05044194310903549, 0.14388702809810638, 0.09182039648294449, 0.24922947585582733, 0.4782547056674957, 0.3817630708217621, 0.3803088963031769, 0.23170657455921173, 0.015101169236004353, -0.1415887176990509, -0.19430139660835266, -0.12122990936040878], [0.1359253078699112, 0.12184528261423111, 0.06401527673006058, -0.07606395334005356, -0.01764177531003952, -0.19977647066116333, -0.10134077072143555, -0.12950877845287323, -0.20614443719387054, -0.024607036262750626, -0.030908411368727684, -0.02821163833141327, -0.06375181674957275, 0.04179949685931206, -0.029275964945554733, 0.10208678990602493, 0.28379011154174805, 0.032093603163957596, 0.21494938433170319, 0.20056873559951782, 0.013739282265305519, -0.13198301196098328, 0.016414588317275047, 0.03168845549225807, 0.2549535930156708, 0.17167574167251587, 0.12513163685798645, 0.22502218186855316, -0.003294130554422736, 0.3248264789581299, -0.06737041473388672, -0.08512633293867111, -0.1089622974395752, -0.22222203016281128, -0.3093588948249817, -0.13974478840827942, 0.08988668024539948, 0.24958723783493042, -0.2327130138874054, -0.2935207486152649, -0.11911797523498535, -0.04436996951699257, 0.02274502068758011, 0.0868222787976265, -0.050715990364551544, -0.022628914564847946, 0.040530022233724594, -0.10050331801176071, 0.0644126906991005, 0.15042737126350403, -0.23480188846588135, -0.49669113755226135, -0.4059010446071625, -0.05172760784626007, -0.5514011383056641, -0.12019110471010208, -0.06898120790719986, -0.17682361602783203, -0.4094240367412567, -0.3667830228805542, 0.05855090171098709, -0.3086424767971039, -0.4071963429450989, -0.025660036131739616, -0.008026099763810635, 0.0710187703371048, -0.017211439087986946, 0.007509702816605568, 0.026274951174855232, -0.022631274536252022, -0.07552625983953476, 0.022020164877176285, -0.10164779424667358, -0.03631700575351715, 0.06024334579706192, -0.06061907112598419, -0.08432592451572418, 0.02182401716709137, 0.07237786054611206, -0.0714721530675888, -0.047798991203308105, 0.018638545647263527, -0.024966903030872345, -0.05452548712491989, -0.0430544875562191, -0.0616527758538723, -0.08943399041891098, -0.06447961181402206, -0.011512229219079018, 0.08834847062826157, 0.04600242152810097, 0.04866481199860573, 0.12427327781915665, 0.01869048923254013, 0.04591862112283707, 0.17708052694797516, 0.12293828278779984, 0.0958312377333641, 0.06989655643701553, 0.10385873913764954, 0.1744762510061264, 0.10886526852846146, 0.10220756381750107, 0.11741957068443298, 0.14440029859542847, 0.055842529982328415, -0.16787007451057434, -0.1030319407582283, -0.10016478598117828, -0.12585356831550598, -0.15469616651535034, -0.05542750656604767, -0.1090940311551094, -0.12554819881916046, -0.0250433050096035, -0.18955254554748535, -0.03692781925201416, -0.10942716896533966, -0.18009822070598602, -0.02613578736782074, 0.11223028600215912, 0.05602844059467316, -0.24055498838424683, -0.23667946457862854, -0.2693313956260681, 0.05415903776884079, -0.19898873567581177, -0.07131153345108032], [0.006144155282527208, 0.14983104169368744, 0.014484338462352753, -0.07123249769210815, -0.12190583348274231, -0.07727543264627457, 0.0070099979639053345, 0.035848218947649, 0.07432083040475845, 0.015470016747713089, 0.036357082426548004, -0.047544192522764206, -0.08216696232557297, 0.04952436685562134, -0.025478536263108253, -0.18986256420612335, -0.1710549145936966, -0.07056882232427597, -0.20083187520503998, -0.273208886384964, 0.06791604310274124, -0.20163366198539734, 0.03802531957626343, 0.07634496688842773, 0.04798851162195206, 0.0226486474275589, 0.019264893606305122, -0.14025624096393585, 0.10725980252027512, 0.2691195011138916, -0.2513260841369629, -0.06620313227176666, -0.02218848094344139, 0.44680047035217285, 0.2656092345714569, 0.19513534009456635, 0.006126630585640669, -0.018971461802721024, -0.03542598336935043, -0.011567954905331135, -0.19900600612163544, 0.13144022226333618, 0.07096417993307114, -0.038999948650598526, 0.05488402396440506, 0.06850820034742355, 0.11943211406469345, -0.02788039855659008, -0.05460923910140991, -0.09379956871271133, -0.1068815141916275, 0.01993684284389019, 0.12754978239536285, 0.029702376574277878, 0.14659343659877777, -0.017276912927627563, -0.019559787586331367, 0.1443834900856018, 0.18429383635520935, 0.12820018827915192, 0.2520206868648529, 0.14749540388584137, 0.16882532835006714, 0.13978531956672668, -0.2105572670698166, -0.13636572659015656, -0.07172288000583649, -0.08689353615045547, 0.005388789344578981, -0.11055068671703339, -0.05004597827792168, -0.09187333285808563, -0.15656480193138123, -0.1277407854795456, -0.030194412916898727, -0.019682081416249275, -0.014877982437610626, 0.013527562841773033, -0.050102848559617996, -0.03383229672908783, -0.032945338636636734, 0.09918076545000076, 0.13637487590312958, 0.034466102719306946, 0.008285961113870144, 0.04574480280280113, -0.026027819141745567, -0.09796904027462006, -0.0797305703163147, -0.1013113409280777, -0.0646219551563263, 0.010223831981420517, 0.026759596541523933, 0.04757039248943329, 0.0999041348695755, 0.202928826212883, 0.26441872119903564, 0.32976779341697693, 0.32169708609580994, 0.23218688368797302, 0.16740009188652039, 0.043792035430669785, 0.2455623745918274, 0.09904879331588745, -0.015915388241410255, -0.04497174546122551, -0.03343740850687027, 0.0741695836186409, 0.07921505719423294, 0.013135746121406555, 0.1386033445596695, 0.167441263794899, 0.08150686323642731, 0.0001742623426252976, -0.006465182173997164, -0.04508890584111214, -0.07841864973306656, 0.17642934620380402, 0.1687304824590683, 0.05749175697565079, 0.003927403595298529, -0.07775499671697617, -0.04089582338929176, 0.0011365484679117799, 0.0696498304605484, 0.2223297357559204, 0.17950715124607086, -0.06161102280020714], [-0.047718506306409836, -0.011521377600729465, -0.01776551455259323, 0.042293958365917206, -0.04345904663205147, -0.1355590522289276, -0.14551818370819092, -0.13336075842380524, -0.01638595573604107, 0.07038845121860504, -0.05403774976730347, 0.006377450190484524, -0.028446482494473457, 0.07216886430978775, -0.056596964597702026, -0.14836052060127258, -0.09423842281103134, -0.10078319907188416, -0.07169389724731445, -0.037620700895786285, -0.06693988293409348, -0.15768231451511383, 0.04462816193699837, 0.1289006918668747, 0.0659341961145401, -0.03115604817867279, -0.047831155359745026, 0.037837810814380646, 0.28570109605789185, 0.17521882057189941, 0.094643734395504, -0.05582341179251671, 0.09371579438447952, 0.1276576817035675, 0.09543948620557785, 0.0219613928347826, 0.01452669594436884, -0.023447491228580475, 0.02435358799993992, 0.04784831404685974, -0.08079283684492111, 0.0068061198107898235, 0.09652048349380493, 0.07652045786380768, 0.06710876524448395, 0.09187600761651993, 0.09357843548059464, 0.0021235537715256214, -0.06900389492511749, 0.08902237564325333, -0.0397782064974308, 0.06280630081892014, 0.08537030220031738, -0.013356802985072136, 0.09785130620002747, -0.05626876652240753, -0.049984436482191086, -0.03046044148504734, -0.1382654756307602, -0.04926034435629845, -0.01604243367910385, -0.08366069197654724, -0.09869939833879471, 0.12449094653129578, 0.24732063710689545, -0.021368104964494705, 0.049150824546813965, -0.07342644780874252, -0.02334718592464924, 0.06364623457193375, 0.046861883252859116, -0.012057512998580933, 0.011983578093349934, 0.024655716493725777, -0.08618004620075226, -0.05127938091754913, -0.11481586843729019, -0.05380183830857277, -0.10931459814310074, -0.13953931629657745, -0.10408981889486313, -0.12354429066181183, -0.073091059923172, -0.1175677552819252, -0.01876348815858364, -0.08955557644367218, -0.0530950166285038, -0.11611787974834442, -0.19253189861774445, -0.19938704371452332, -0.1197037398815155, -0.09473086148500443, -0.1757732331752777, -0.13535892963409424, -0.09698861092329025, -0.09640995413064957, -0.05606357380747795, -0.06025261804461479, -0.1954197883605957, -0.1691512167453766, -0.1664479523897171, -0.1528269201517105, -0.043651506304740906, -0.0212442334741354, -0.09123703837394714, -0.1253810077905655, -0.1476326733827591, -0.12958353757858276, -0.09790103137493134, -0.16800956428050995, -0.1340937316417694, -0.02857060544192791, -0.13307389616966248, -0.08873842656612396, -0.1120266392827034, -0.011474814265966415, 0.029559677466750145, 0.01760696992278099, -0.0890142023563385, -0.018301405012607574, 0.04812793433666229, 0.03416996821761131, 0.0710647851228714, -0.3018001317977905, -0.3253432810306549, -0.20708858966827393, -0.20608580112457275, 0.00022546769469045103], [-0.057519037276506424, 0.07745043188333511, -0.0575653500854969, -0.09391608834266663, -0.0007898404728621244, -0.14009979367256165, -0.05256602168083191, 0.08291732519865036, 0.06660664826631546, 0.08714122325181961, 0.08627510815858841, 0.13968507945537567, 0.066743403673172, 0.09638327360153198, 0.1693839728832245, 0.22558490931987762, 0.17049098014831543, 0.07251541316509247, 0.32132667303085327, -0.0519871711730957, 0.06804119795560837, 0.1558258980512619, 0.17564766108989716, 0.1137118861079216, 0.01477728970348835, 0.08068467676639557, 0.11118666082620621, -0.054126251488924026, 0.120367631316185, 0.021867139264941216, 0.0141624566167593, 0.08838412910699844, 0.022088585421442986, -0.09668456763029099, 0.10601361095905304, -0.04265676438808441, -0.1288667619228363, -0.14937520027160645, -0.1844952404499054, -0.027049105614423752, 0.08782770484685898, -0.15067799389362335, -0.05487124249339104, 0.03349309414625168, -0.21065367758274078, 0.019514350220561028, -0.22920432686805725, -0.3045419752597809, -0.14306801557540894, -0.06237605959177017, -0.0915214791893959, -0.12942925095558167, -0.08521019667387009, 0.20338191092014313, 0.015459897927939892, -0.04770131781697273, -0.05952758714556694, 0.011391337029635906, -0.19696474075317383, -0.06046805530786514, -0.10962992906570435, -0.06521263718605042, -0.05040572211146355, -0.19332778453826904, -0.06557352095842361, -0.0059521617367863655, 0.10302893817424774, 0.017591752111911774, 0.1461811363697052, 0.1479448825120926, 0.17328225076198578, 0.0708121508359909, 0.2673535943031311, 0.3365904688835144, 0.34532076120376587, 0.3417644798755646, 0.24277812242507935, 0.24086837470531464, 0.14843519032001495, 0.12033891677856445, 0.18673285841941833, 0.21584193408489227, 0.2842792272567749, 0.3137696385383606, 0.20045369863510132, 0.1824200302362442, 0.1506955772638321, 0.1270422339439392, 0.037189316004514694, -0.08854924142360687, -0.12606793642044067, 0.006658849306404591, 0.013288517482578754, 0.12444904446601868, 0.10879220813512802, 0.05716825649142265, 0.09059181064367294, -0.12443549931049347, -0.05759265273809433, -0.1117769256234169, -0.1965637356042862, -0.1951856017112732, -0.2228345423936844, -0.07161422073841095, -0.17642495036125183, -0.14733484387397766, -0.1294497400522232, -0.22397105395793915, -0.2713664472103119, -0.3749038279056549, -0.44461092352867126, -0.5414465665817261, -0.34952566027641296, -0.29617875814437866, -0.24479906260967255, -0.06937059760093689, 0.05221853777766228, 0.18663573265075684, 0.22441330552101135, 0.14471203088760376, -0.10643470287322998, -0.3219696879386902, -0.269106924533844, -0.10940559953451157, -0.03958034887909889, -0.21671894192695618, 0.012587924487888813, -0.061845917254686356], [-0.025097478181123734, -0.04587938264012337, -0.005823890678584576, -0.11831185966730118, -0.08519402891397476, -0.09840532392263412, -0.011473911814391613, 0.1163301095366478, 0.12544208765029907, 0.20658063888549805, 0.15447589755058289, 0.18140281736850739, 0.1526002138853073, 0.10633967071771622, 0.22090156376361847, 0.36589863896369934, 0.5467888116836548, 0.021833300590515137, 0.2579820454120636, -0.02870160900056362, 0.32612162828445435, 0.439535915851593, 0.23613740503787994, 0.316251665353775, 0.2649909257888794, -0.06971804052591324, -0.13769330084323883, -0.18304859101772308, -0.16859742999076843, -0.05323389917612076, 0.07708451896905899, -0.3259480595588684, -0.06233632192015648, -0.028830986469984055, -0.21904915571212769, -0.20104825496673584, -0.23274308443069458, -0.17082108557224274, -0.04829465597867966, 0.010122203268110752, -0.008324295282363892, -0.03915299475193024, -0.11842469871044159, 0.14764074981212616, -0.14276443421840668, -0.16055180132389069, 0.07557859271764755, -0.189814954996109, -0.07604517042636871, 0.05952448770403862, 0.11931749433279037, -0.11052824556827545, -0.1731559932231903, -0.28441476821899414, -0.0325637124478817, -0.20220360159873962, -0.32681435346603394, -0.33706969022750854, -0.4496983289718628, -0.2430739402770996, -0.2722482979297638, -0.26499903202056885, -0.2339784801006317, -0.17464886605739594, -0.10383918136358261, 0.025654379278421402, -0.08831728994846344, -0.027472883462905884, 0.010444022715091705, -0.06602450460195541, -0.07046221941709518, -0.09025091677904129, 0.03534892201423645, -0.022639278322458267, 0.008460375480353832, -0.034064698964357376, -0.060922205448150635, -0.07235968858003616, 0.012718369252979755, 0.05313415452837944, -0.05756041780114174, -0.020229017361998558, -0.027376633137464523, -0.1441633105278015, -0.10089240223169327, -0.06856127828359604, -0.0389583446085453, -0.08128943294286728, -7.4240160756744444e-06, 0.014001235365867615, 0.07440607249736786, 0.13894085586071014, 0.0950603038072586, -0.0352102629840374, 0.05739110708236694, 0.05685649812221527, 0.02205985225737095, -0.03936520218849182, 0.03806538134813309, 0.06556759774684906, 0.1711503118276596, 0.18392488360404968, 0.17130951583385468, 0.1954793483018875, 0.19424518942832947, 0.12110510468482971, -0.07563567906618118, -0.061256252229213715, -0.10439466685056686, -0.12105274945497513, 0.030197739601135254, 0.025729386135935783, -0.013399201445281506, 0.09838776290416718, 0.11841217428445816, -0.010268849320709705, -0.018898721784353256, 0.05525214970111847, 0.19584624469280243, 0.15884096920490265, 0.005015017464756966, 0.12734614312648773, -0.06242772191762924, -0.02698848955333233, 0.04098939523100853, 0.01131401862949133, 0.004244608338922262, 0.10509208589792252], [0.03192242980003357, -0.11842174082994461, -0.1556195765733719, -0.05419449880719185, 0.013836164958775043, 0.007272311020642519, -0.019204791635274887, -0.07574155926704407, -0.07849235087633133, -0.0339852049946785, -0.060864582657814026, 0.0010324206668883562, -0.07294469326734543, 0.03974844887852669, -0.17471866309642792, -0.09569991379976273, 0.05421062186360359, -0.1332954466342926, -0.15849921107292175, -0.17510594427585602, -0.1493009328842163, -0.21704070270061493, -0.004546407610177994, -0.149404376745224, -0.0012266404228284955, 0.0006525382050313056, 0.015118562616407871, 0.126424178481102, 0.027967870235443115, 0.03580537065863609, -0.05346061289310455, 0.060844700783491135, 0.012762500904500484, -0.09049248695373535, 0.06889642030000687, 0.1363406628370285, -0.04624020308256149, -0.046355172991752625, 0.043607473373413086, 0.03076115809381008, -0.1898563951253891, -0.09938826411962509, 0.08438465744256973, -0.0966128557920456, 0.01145761739462614, -0.0174469742923975, -0.20502212643623352, -0.03633749485015869, 0.02695227600634098, 0.04029054567217827, -0.1008262112736702, -0.10943181067705154, 0.0033341425005346537, -0.1379391998052597, -0.11885000020265579, -0.050334688276052475, -0.004734706599265337, -0.006444815546274185, -0.10897260904312134, -0.31179845333099365, -0.04850205406546593, -0.21899409592151642, -0.14390601217746735, -0.029719894751906395, 0.16491317749023438, 0.06539057940244675, 0.0026046857237815857, -0.05091892182826996, 0.042313653975725174, 0.03654850274324417, -0.08184918761253357, -0.10681162774562836, -0.011799493804574013, -0.15379245579242706, -0.14620889723300934, -0.05622754618525505, 0.00035164441214874387, -0.11047148704528809, -0.09453896433115005, -0.04466661065816879, -0.12584488093852997, 0.03939218446612358, -0.08562801033258438, -0.11186745762825012, -0.12281832844018936, -0.0311417393386364, -0.07748421281576157, -0.15300211310386658, -0.040111783891916275, -0.15522339940071106, -0.17679870128631592, -0.11104623228311539, -0.16330713033676147, -0.14376039803028107, -0.22887718677520752, -0.18843770027160645, -0.08120649307966232, -0.21804358065128326, -0.07991499453783035, -0.13074487447738647, -0.03804800659418106, -0.1647975891828537, -0.15171007812023163, -0.09113428741693497, 0.07107801735401154, 0.07504528760910034, -0.04366041347384453, -0.029863130301237106, -0.020352229475975037, 0.05964023619890213, 0.017500270158052444, 0.04929384961724281, -0.11051478981971741, 1.051103936333675e-05, -0.0910210981965065, -0.1138429120182991, -0.003069887636229396, 0.06236857920885086, 0.01113277580589056, 0.10568153858184814, 0.08751717209815979, 0.09343314170837402, -0.017779305577278137, -0.1376103013753891, -0.31137382984161377, -0.20937395095825195, -0.21438518166542053, -0.13406996428966522], [0.10858231037855148, 0.01449100486934185, 0.03656533360481262, 0.10690414160490036, -0.03053218498826027, 0.04763571545481682, 0.03495458886027336, 0.12673470377922058, 0.06874974817037582, 0.051691796630620956, -0.020732533186674118, -0.006931283976882696, 0.11134699732065201, 0.037047263234853745, 0.08853034675121307, 0.01663622446358204, -0.1546371877193451, -0.06003502011299133, 0.08748304843902588, 0.11572534590959549, 0.05690070614218712, -0.030358275398612022, -0.016364289447665215, -0.08288087695837021, -0.08225220441818237, -0.013685216195881367, -0.07281266152858734, -0.07478437572717667, -0.02792455442249775, -0.028554275631904602, -0.0901389792561531, 0.010846554301679134, 0.1303776651620865, 0.17497767508029938, 0.03736904263496399, -0.01799609698355198, -0.017653176560997963, -0.08854474872350693, 0.011700603179633617, -0.07522570341825485, -0.019737785682082176, 0.12614303827285767, -0.08519623428583145, 0.00217606034129858, -0.16178658604621887, -0.02489474043250084, 0.14981311559677124, 0.045795850455760956, -0.11563523858785629, -0.10931821912527084, 0.140039324760437, 0.12761330604553223, -0.10104652494192123, 0.0704687237739563, -0.02269863709807396, 0.0422743484377861, -0.2901934087276459, 0.059766411781311035, -0.17577853798866272, 0.00815963838249445, -0.017928864806890488, -0.021590949967503548, 0.03273862600326538, -0.09239315986633301, 0.01038263738155365, 0.07710379362106323, 0.05971597135066986, 0.08638564497232437, 0.08377554267644882, -0.016007499769330025, 0.14694927632808685, 0.1282917559146881, 0.087188221514225, 0.20312851667404175, 0.2083669751882553, 0.24461625516414642, 0.2401254028081894, 0.1773131638765335, 0.04381508752703667, -0.026384979486465454, 0.060806676745414734, 0.01549235824495554, 0.07613682746887207, 0.21242626011371613, 0.18657025694847107, 0.16559094190597534, 0.17522814869880676, 0.14788125455379486, 0.26305755972862244, 0.09143312275409698, 0.10208520293235779, 0.33039915561676025, 0.3402629792690277, 0.3442786633968353, 0.25930893421173096, 0.23963843286037445, 0.08486014604568481, -0.015255162492394447, -0.027416501194238663, 0.08163309097290039, -0.02236766926944256, -0.1998002827167511, -0.06135808676481247, -0.1641165316104889, -0.21939311921596527, -0.21105273067951202, -0.12943199276924133, -0.10986272990703583, -0.12340162694454193, -0.24302533268928528, -0.0924566388130188, -0.14779672026634216, -0.013901911675930023, 0.21329882740974426, 0.23419389128684998, 0.14914077520370483, 0.10882597416639328, -0.060410961508750916, -0.17405936121940613, -0.17855948209762573, -0.06437628716230392, -0.08712922036647797, 0.2718159556388855, 0.16051536798477173, 0.06092890724539757, 0.06510886549949646, -0.023678360506892204, -0.020524922758340836], [-0.09391608089208603, -0.02703707292675972, -0.06827010959386826, -0.011958029121160507, 0.12360937148332596, 0.04847676306962967, 0.0010726186446845531, -0.03333694115281105, -0.02602095529437065, -0.062102172523736954, -0.02256302908062935, -0.0011145942844450474, 0.0127780856564641, -0.09842551499605179, 0.0019602945540100336, 0.0742289125919342, -0.04083647578954697, 0.10318438708782196, -0.059183694422245026, 0.12854436039924622, -0.11931594461202621, -0.06276450306177139, -0.06301245093345642, 0.021346725523471832, 0.15200981497764587, -0.030220432206988335, 0.0040841843001544476, 0.01813064143061638, -0.10551876574754715, -0.05435774475336075, 0.15640908479690552, 0.058231059461832047, -0.2699183523654938, -0.11784534156322479, 0.0810592994093895, 0.07341179996728897, 0.22246281802654266, -0.05907079949975014, 0.01293964497745037, -0.03219481185078621, 0.18891902267932892, 0.13024552166461945, 0.17945802211761475, 0.3228805363178253, 0.14138531684875488, 0.1963474303483963, 0.2152528464794159, 0.17300887405872345, 0.22451907396316528, 0.23164062201976776, 0.10542252659797668, 0.0979115441441536, -0.10860647261142731, -0.08804797381162643, -0.16595585644245148, -0.3292761743068695, -0.18129539489746094, -0.3960430920124054, -0.1345006376504898, -0.20589220523834229, -0.23534800112247467, -0.18768717348575592, -0.1265687793493271, -0.013921573758125305, -0.2064468264579773, 0.0432826429605484, -0.012543909251689911, 0.0635460615158081, 0.07299701124429703, -0.03296427056193352, -0.04191094636917114, -0.05692075565457344, -0.1041351705789566, 0.0245463065803051, -0.016400592401623726, -0.05887199565768242, -0.09602927416563034, -0.13389191031455994, -0.08545339107513428, -0.06532083451747894, -0.0483192540705204, -0.014921152964234352, -0.03068172000348568, -0.12115199863910675, -0.03867131099104881, -0.15570655465126038, -0.15678353607654572, -0.024983149021863937, -0.11283621191978455, -0.06592016667127609, -0.012666421011090279, 0.04316479712724686, 0.08484531193971634, 0.10110753774642944, -0.04103405773639679, 0.05171920359134674, 0.062405750155448914, 0.025500228628516197, -0.05046667903661728, 0.013699134811758995, 0.06083645671606064, -0.10250023752450943, -0.0655173659324646, 0.06635930389165878, 0.01907508820295334, 0.10344352573156357, 0.14634490013122559, 0.16300438344478607, 0.12476561963558197, 0.06651555746793747, 0.23916789889335632, 0.38068902492523193, 0.575320839881897, 0.535021185874939, 0.47110795974731445, 0.3905736804008484, 0.1585528552532196, 0.07792622596025467, -0.08712612837553024, -0.3579607605934143, -0.35406428575515747, -0.4351135790348053, -0.3220865726470947, -0.1888614445924759, -0.14817920327186584, -0.1359269917011261, -0.10499338805675507, -0.1302461177110672], [0.09408634901046753, 0.12958943843841553, 0.1864476203918457, 0.13065935671329498, 0.0381622388958931, 0.030296899378299713, 0.073374442756176, -0.03701635077595711, 0.0984819233417511, 0.043818168342113495, 0.008517149835824966, 0.08933443576097488, 0.043037984520196915, -0.005756165366619825, -0.18025211989879608, -0.051714662462472916, -0.11241057515144348, 0.046295661479234695, -0.05742240324616432, 0.16007281839847565, 0.13393940031528473, -0.06244521960616112, -0.03674915432929993, 0.024854328483343124, 0.0773376077413559, 0.012784648686647415, 0.10000655800104141, -0.09178932756185532, -0.14750753343105316, -0.12071920931339264, -0.07101276516914368, -0.1596539467573166, -0.21247655153274536, 0.04874972999095917, -0.015441288240253925, 0.11736661195755005, 0.14575785398483276, -0.04635336622595787, 0.22292128205299377, 0.0023956680670380592, 0.004855089820921421, -0.17850042879581451, 0.005685362033545971, -0.048902906477451324, 0.16352292895317078, 0.08983594924211502, 0.052756112068891525, 0.13117347657680511, 0.16599075496196747, 0.22904203832149506, -0.12395306676626205, -0.02375819906592369, 0.23529034852981567, 0.1818370521068573, -0.045487310737371445, 0.024133946746587753, 0.15025116503238678, 0.018002759665250778, -0.039866942912340164, -0.166739359498024, 0.10524706542491913, 0.04734377935528755, -0.07919725775718689, -0.07378633320331573, -0.22371959686279297, 0.10367736220359802, 0.16324295103549957, 0.023681428283452988, 0.1650352030992508, 0.07999609410762787, 0.0866011381149292, 0.1737850308418274, 0.15028499066829681, 0.060014303773641586, 0.0909833163022995, 0.01679215021431446, 0.1795458048582077, 0.05121065676212311, 0.06416920572519302, -0.059159595519304276, 0.01084960624575615, 0.04067423939704895, 0.06509068608283997, 0.06611085683107376, 0.07347303628921509, -0.04895709455013275, -0.07081503421068192, 0.0022773146629333496, -0.04978514090180397, -0.09697441756725311, 0.05318272486329079, -0.0247003473341465, -0.08265538513660431, -0.07908140122890472, -0.023401280865073204, 0.1315714418888092, 0.021599795669317245, 0.13585709035396576, 0.1924549788236618, 0.16682106256484985, 0.10745856165885925, 0.1744762659072876, 0.11655548959970474, 0.2140011340379715, 0.055859945714473724, 0.07534411549568176, 0.09248130023479462, 0.035598717629909515, 0.10884646326303482, -0.05409439280629158, 0.0518469363451004, 0.20597080886363983, 0.18720385432243347, 0.06045496463775635, 0.004337484482675791, 0.04100371152162552, -0.06875710189342499, -0.05662328377366066, -0.05782697722315788, -0.07434456795454025, 0.15530991554260254, 0.28637075424194336, 0.2699839174747467, 0.03224264830350876, 0.15454357862472534, 0.36670440435409546, 0.3828308582305908, 0.24053660035133362], [0.15173570811748505, -0.04603022709488869, -0.022715717554092407, 0.06520463526248932, -0.008269118145108223, 0.07681680470705032, 0.08665722608566284, 0.06417898833751678, 0.059614554047584534, 0.047390297055244446, 0.004333329852670431, -0.10028509795665741, -0.03524865582585335, -0.033441752195358276, -0.016691505908966064, 0.0754355788230896, 0.07577691227197647, -0.05870380625128746, 0.048484839498996735, 0.05759761855006218, -0.13459013402462006, 0.01924414187669754, 0.09130377322435379, 0.12930524349212646, 0.053082674741744995, 0.27599450945854187, -0.24059154093265533, 0.022442063316702843, 0.12082590907812119, 0.07799752056598663, -0.035996321588754654, 0.2600986659526825, 0.05637095123529434, 0.03474510833621025, -0.034779101610183716, -0.09396572411060333, -0.0016580612864345312, 0.011169496923685074, -0.11084793508052826, 0.07466671615839005, -0.08168558776378632, -0.06024739891290665, -0.12354829162359238, -0.17476920783519745, -0.27397578954696655, -0.39998772740364075, -0.07543908804655075, -0.07539883255958557, -0.04459233582019806, -0.1387764811515808, -0.01045000459998846, 0.008492531254887581, -0.16963736712932587, -0.10671418160200119, -0.2588937282562256, 0.0906357690691948, 0.07861927896738052, 0.10160744190216064, 0.0983739122748375, -0.03196212276816368, -0.1674109697341919, -0.14919041097164154, 0.03524906560778618, 0.12105730175971985, 0.07556922733783722, -0.060133952647447586, -0.037225812673568726, 0.08568590134382248, -0.07610613852739334, 0.039949338883161545, -0.03182819485664368, 0.057698290795087814, -0.04606518894433975, -0.08221589028835297, 0.029559198766946793, -0.05718278884887695, -0.07282601296901703, -0.07915807515382767, -0.028818368911743164, 0.08702739328145981, -0.043187618255615234, 0.018234722316265106, 0.0696764886379242, 0.06557148694992065, 0.07103761285543442, 0.030229046940803528, -0.05102163180708885, -0.11842025816440582, -0.020569175481796265, -0.07850852608680725, -0.03693460300564766, -0.022838827222585678, -0.10137306153774261, -0.0037811482325196266, -0.13303491473197937, 0.02426857501268387, -0.052326612174510956, 0.061988238245248795, 0.020995453000068665, -0.06141938641667366, 0.010877774097025394, -0.003993166144937277, -0.008989140391349792, -0.058316703885793686, 0.1350027620792389, 0.13378119468688965, 0.030242742970585823, 0.08390770107507706, 0.043563906103372574, 0.06937649846076965, 0.1942249834537506, -0.01652742549777031, -0.06790150701999664, -0.11663838475942612, -0.1357685774564743, -0.11482438445091248, -0.2312898486852646, -0.10311112552881241, -0.09773924201726913, -0.15562935173511505, -0.09198980778455734, -0.03938264399766922, -0.23919810354709625, -0.4473927915096283, -0.5166024565696716, -0.04149489104747772, -0.2512931525707245, -0.03394037485122681], [0.22192493081092834, 0.07581260800361633, 0.10248220711946487, 0.00010218535317108035, -0.07014920562505722, -0.048979394137859344, -0.06891542673110962, 0.05569003149867058, 0.16076819598674774, 0.08839721232652664, 0.1490887552499771, 0.27956148982048035, 0.3463434875011444, 0.42199090123176575, 0.18572664260864258, 0.1725628823041916, 0.2863669991493225, 0.24792541563510895, 0.37190431356430054, 0.25645285844802856, -0.003611133433878422, -0.025616569444537163, 0.06168660894036293, 0.37961018085479736, -0.027468036860227585, 0.17539279162883759, 0.019635934382677078, -0.2732241153717041, -0.21076755225658417, -0.23688077926635742, -0.1898321956396103, -0.2115149199962616, -0.32121965289115906, -0.24999742209911346, 0.024543412029743195, -0.40959233045578003, -0.051224298775196075, -0.19902807474136353, -0.008483285084366798, 0.06881289929151535, 0.1694345623254776, 0.3396182060241699, -0.25138089060783386, -0.2756856679916382, -0.006593811791390181, -0.021474624052643776, 0.0007560502272099257, -0.11086902767419815, 0.07653749734163284, 0.18949943780899048, 0.31132158637046814, -0.24927303194999695, -0.11519685387611389, 0.08549327403306961, -0.08636973798274994, 0.08444860577583313, -0.16825221478939056, 0.037615854293107986, -0.0661340281367302, 0.09210510551929474, -0.10227734595537186, -0.18153777718544006, -0.1793559193611145, -0.12085447460412979, 0.14190058410167694, 0.07761714607477188, 0.09134608507156372, 0.07071849703788757, -0.00736757880076766, -0.05579102039337158, 0.07911872863769531, 0.052360620349645615, 0.06131993234157562, 0.05787493661046028, 0.09509024024009705, -0.036979712545871735, 0.08195043355226517, 0.02098603919148445, 0.10357097536325455, 0.04412484169006348, 0.012961646541953087, 0.02125682681798935, 0.018608812242746353, 0.10416895896196365, 0.004618411418050528, 0.09584261476993561, 0.05488543212413788, -0.037866007536649704, -0.06535042077302933, -0.09649673849344254, -0.04009242728352547, -0.10399064421653748, 0.03830542787909508, 0.0005861844401806593, -0.06486080586910248, -0.10299677401781082, -0.05148898437619209, -0.016157981008291245, 0.02670278586447239, 0.1636546552181244, 0.16048112511634827, 0.10734817385673523, 0.022276362404227257, 0.00885077752172947, 0.0932428389787674, 0.05235614255070686, -0.03843949735164642, 0.0024746046401560307, -0.0819309875369072, -0.01216099876910448, -0.03824073448777199, -0.01434683334082365, -0.1642116755247116, -0.095598004758358, -0.17739787697792053, -0.3000583052635193, -0.2855190336704254, -0.33202797174453735, -0.13656213879585266, 0.026004187762737274, 0.07087557762861252, -0.07631149888038635, 0.018147559836506844, 0.06356452405452728, 0.010518936440348625, 0.19800633192062378, 0.24135851860046387, 0.12422233074903488], [-0.030117591843008995, -0.07222871482372284, 0.0704193115234375, -0.024001816287636757, 0.057833366096019745, -0.01932525634765625, 0.03673313185572624, 0.009666627272963524, 0.009080732241272926, 0.00594335189089179, -0.035398632287979126, 0.07561711966991425, 0.01351267658174038, -0.023568348959088326, -0.0859522819519043, -0.026122329756617546, -0.07556604593992233, -0.14735476672649384, -0.10761859267950058, -0.08541649580001831, -0.10441946238279343, 0.06767217814922333, 0.03814663738012314, 0.009067551232874393, 0.03858065605163574, 0.15613067150115967, 0.07569444924592972, 0.0125997019931674, 0.18443676829338074, 0.0033988167997449636, 0.09120644629001617, -0.012611453421413898, -0.03561015799641609, 0.13545481860637665, 0.16312658786773682, 0.06459340453147888, 0.04142935574054718, -0.06836222112178802, -0.10730742663145065, -0.054395031183958054, 0.0005328627303242683, -0.00856656115502119, -0.15655285120010376, -0.2082795798778534, -0.1148519292473793, -0.08257449418306351, -0.2507197856903076, -0.1935083568096161, -0.04408140480518341, -0.09664466977119446, 0.08381452411413193, -0.05964808166027069, -0.0999472364783287, -0.06692121922969818, -0.1789366751909256, -0.05164745822548866, -0.08209666609764099, -0.0004903621738776565, -0.04915035888552666, 0.08550228923559189, 0.14266115427017212, 0.08383016288280487, -0.09354341775178909, 0.001955564133822918, -0.21299688518047333, -0.00957830436527729, -0.09205959737300873, -0.06936784833669662, 0.012133230455219746, 0.026534469798207283, 0.07790819555521011, 0.04417671263217926, 0.08761657774448395, 0.1521812230348587, 0.09562640637159348, 0.12525488436222076, 0.12350762635469437, 0.006793026812374592, -0.06674797087907791, 0.021932095289230347, 0.05666138976812363, -0.0085797980427742, 0.06370925903320312, 0.11633740365505219, 0.146100252866745, 0.21703121066093445, 0.35459429025650024, 0.2016117423772812, 0.316252201795578, 0.18011197447776794, 0.11221032589673996, 0.2897881865501404, 0.31479331851005554, 0.2708890438079834, 0.28915655612945557, 0.3431205451488495, 0.2506074607372284, 0.19311769306659698, 0.20532137155532837, 0.16130322217941284, 0.032116129994392395, -0.19843830168247223, -0.11497078090906143, -0.1867085099220276, -0.26093149185180664, -0.2109043300151825, -0.09632747620344162, -0.0428018718957901, 0.03370359167456627, 0.05120604857802391, 0.14501900970935822, 0.14270882308483124, 0.16687463223934174, 0.08692498505115509, 0.08124150335788727, -0.07294679433107376, -0.054630082100629807, 0.016141127794981003, 0.10882686078548431, 0.2058791071176529, 0.1171356588602066, -0.1151907742023468, -0.002755626803264022, 0.13477730751037598, 0.11846144497394562, 0.0032837502658367157, 0.03761547803878784, -0.016110224649310112], [-0.08346546441316605, -0.06971962004899979, -0.1443541944026947, 0.013425442390143871, -0.12864376604557037, -0.05971677973866463, 0.03441775590181351, 0.07139532268047333, 0.05784871429204941, 0.010635419748723507, -0.06466668099164963, -0.011520743370056152, 0.1089271605014801, 0.003536381758749485, 0.09122920036315918, -0.033649563789367676, -0.018563728779554367, -0.05522160232067108, -0.23091380298137665, -0.0980118066072464, -0.15805822610855103, 0.1228371411561966, -0.019613739103078842, -0.09551412612199783, -0.27501073479652405, -0.07157456874847412, 0.1544644832611084, 0.019165873527526855, -0.1225404441356659, 0.09700798243284225, 0.17600873112678528, -0.040301211178302765, -0.02922181785106659, -0.16312989592552185, 0.04509175196290016, 0.019861582666635513, 0.09075403213500977, -0.18676501512527466, -0.13433738052845, 0.04788359999656677, 0.12087690085172653, 0.0754968598484993, 0.26008784770965576, 0.15113960206508636, 0.19581866264343262, 0.1511593461036682, -0.07009489089250565, 0.22536277770996094, 0.059199023991823196, 0.14418724179267883, 0.04623575881123543, -0.07857342809438705, 0.19222868978977203, -0.13180948793888092, 0.08025357872247696, -0.08649422973394394, 0.0027458867989480495, 0.08918444067239761, -0.07858753204345703, -0.026612605899572372, -0.0017702043987810612, 0.06662856042385101, 0.08908197283744812, -0.10108771175146103, -0.12210115790367126, -0.26139289140701294, -0.1591084897518158, -0.2639597952365875, -0.24865736067295074, -0.15547695755958557, -0.1994299590587616, -0.14533106982707977, -0.25240087509155273, -0.19778208434581757, -0.16859282553195953, -0.22669613361358643, -0.10692936927080154, -0.15042713284492493, -0.14301519095897675, -0.07602664083242416, -0.11038097739219666, -0.1619141548871994, -0.1366448700428009, -0.05224502459168434, -0.08716794848442078, -0.06370832026004791, -0.041294265538454056, 0.03450876101851463, 0.15241146087646484, 0.1533348709344864, 0.11190662533044815, 0.13127650320529938, 0.11567436158657074, 0.05527109280228615, 0.035595398396253586, 0.13168366253376007, 0.23948149383068085, 0.08598422259092331, 0.15008658170700073, 0.06945232301950455, 0.1803751140832901, 0.15001849830150604, 0.1968187689781189, 0.22081919014453888, 0.3245539963245392, 0.45510584115982056, 0.388071745634079, 0.3500269055366516, 0.3930240571498871, 0.13263072073459625, 0.202773779630661, 0.019653236493468285, 0.031439732760190964, 0.07874321937561035, 0.2822931706905365, 0.17986434698104858, 0.3287401795387268, 0.17172706127166748, 0.04646271839737892, 0.01630832627415657, -0.02026975341141224, 0.07810965925455093, 0.20183327794075012, 0.11289694905281067, 0.1995045244693756, 0.028606338426470757, -0.11094918102025986, -0.0714525654911995], [-0.07608398795127869, 0.0414440855383873, -0.06948702782392502, 0.05530886724591255, -0.09280023723840714, 0.031816888600587845, -0.11535067856311798, -0.09124486148357391, 0.03888873755931854, 0.026308657601475716, 0.10310996323823929, 0.12812110781669617, -0.03172647953033447, -0.1593930423259735, -0.15827541053295135, 0.020706841722130775, 0.09188592433929443, 0.1915031224489212, 0.018624508753418922, 0.003946435172110796, -0.09889797866344452, -0.17067840695381165, 0.009040080942213535, 0.07768945395946503, 0.07643749564886093, 0.18187305331230164, -0.1403643786907196, 0.06680817157030106, 0.09546410292387009, 0.02166968397796154, 0.10644742101430893, -0.25989723205566406, -0.1500568687915802, -0.1242014616727829, -0.1487240344285965, 0.07263622432947159, 0.019602742046117783, -0.1324729025363922, -0.11193040758371353, 0.022197112441062927, 0.06419330835342407, 0.2786431312561035, 0.0959145799279213, 0.16713033616542816, 0.20843389630317688, 0.12640784680843353, 0.1942027062177658, 0.2559748888015747, -0.11328379809856415, -0.2550998628139496, -0.08348943293094635, -0.011118191294372082, -0.12570197880268097, -0.012815468944609165, 0.04141697660088539, 0.09638146311044693, 0.026112783700227737, -0.0629439428448677, -0.026087239384651184, -0.061627428978681564, -0.10021575540304184, -0.0802784264087677, -0.0831383764743805, 0.11241046339273453, -0.08026885241270065, -0.06443175673484802, -0.12417323887348175, -0.022436650469899178, -0.12972380220890045, -0.014032047241926193, -0.002622923580929637, -0.13102829456329346, -0.031220611184835434, -0.045919161289930344, -0.12084872275590897, -0.01881060004234314, 0.09994851797819138, -0.04955882951617241, 0.05449795722961426, 0.08862657099962234, 0.10444699972867966, 0.0780811458826065, 0.1624470204114914, 0.12272658199071884, 0.14965662360191345, 0.16228146851062775, 0.15229173004627228, 0.21299025416374207, 0.2533875107765198, 0.30711105465888977, 0.3076084852218628, 0.2924375534057617, 0.18990764021873474, 0.2457066923379898, 0.1354217827320099, -0.0075961630791425705, -0.16281940042972565, -0.2981630861759186, -0.27388158440589905, -0.22196653485298157, -0.302907794713974, -0.27433180809020996, -0.2264259308576584, -0.19190078973770142, -0.08687768876552582, 0.004839363973587751, 0.20592761039733887, 0.22009065747261047, 0.3010164797306061, 0.2850712835788727, 0.3249509334564209, 0.12599235773086548, 0.023355480283498764, -0.04620523378252983, -0.19683369994163513, -0.09901154041290283, -0.09171896427869797, 0.08710122108459473, 0.2012173980474472, 0.060075707733631134, 0.0973508358001709, -0.18252265453338623, -0.09996357560157776, -0.15256668627262115, -0.01237928494811058, 0.05922103300690651, 0.004728705156594515, 0.10752441734075546], [0.07958615571260452, -0.021116044372320175, 0.02110598422586918, 0.11716484278440475, -0.013487931340932846, -0.027319712564349174, -0.05735629424452782, -0.03623107448220253, -0.11028997600078583, -0.08864890038967133, -0.027435099706053734, -0.011890494264662266, -0.009278643876314163, 0.013272029347717762, -0.018682463094592094, 0.04422171413898468, -0.018778787925839424, 0.054869912564754486, 0.032710857689380646, 0.025784777477383614, -0.05329450964927673, -0.07428357005119324, 0.026957934722304344, 0.06885435432195663, 0.041872281581163406, -0.06828303635120392, -0.07008475810289383, 8.295592851936817e-05, 0.07661820203065872, -0.0350901260972023, -0.07165475934743881, 0.23333881795406342, 0.007802107371389866, 0.15537481009960175, -0.13012473285198212, -0.1963152289390564, -0.031747058033943176, 0.0005811457522213459, 0.11639068275690079, 0.19791793823242188, 0.16492213308811188, 0.11734569817781448, 0.14293406903743744, 0.09993169456720352, -0.02199711464345455, -0.06583359092473984, 0.0383884534239769, -0.014500281773507595, -0.013436568900942802, 0.02414417639374733, -0.00505007803440094, -0.13409876823425293, -0.06524727493524551, -0.2048758864402771, -0.18885961174964905, -0.12324386090040207, -0.19042983651161194, -0.20050479471683502, -0.2355417162179947, -0.25526073575019836, -0.3953193426132202, -0.34405824542045593, -0.053275201469659805, -0.08749443292617798, -0.07214872539043427, -0.07307465374469757, -0.07045495510101318, -0.04193035885691643, 0.01747150532901287, -0.05516839027404785, -0.07428304105997086, -0.01096997782588005, -0.12371321022510529, -0.13245375454425812, -0.15833282470703125, -0.019963225349783897, -0.04865918308496475, -0.01589064672589302, -0.1172843649983406, -0.0034241382963955402, -0.05064399912953377, 0.056981172412633896, 0.04795515909790993, 0.1648605614900589, 0.08115774393081665, 0.0697229653596878, 0.1707843840122223, 0.17765039205551147, 0.09195910394191742, 0.06954813003540039, 0.08736857026815414, 0.14552654325962067, 0.13625472784042358, 0.17944569885730743, 0.10447100549936295, 0.1634351760149002, 0.1440059095621109, 0.05636999383568764, 0.08490791916847229, 0.015989800915122032, -0.07652153819799423, 0.08645465224981308, 0.17285911738872528, 0.22301506996154785, 0.2609027624130249, 0.15509483218193054, 0.15393505990505219, 0.3335779905319214, 0.32826048135757446, 0.23531873524188995, 0.1853526532649994, 0.13199590146541595, -0.0681743174791336, -0.2155342847108841, -0.3244929015636444, -0.32000383734703064, -0.23832736909389496, -0.047197841107845306, -0.010908405296504498, -0.018948448821902275, -0.17630837857723236, -0.20257382094860077, -0.27449411153793335, -0.4850047528743744, -0.45332247018814087, -0.24197116494178772, 0.007880628108978271, -0.01238847617059946], [-0.0634443610906601, 0.036744069308042526, 0.02459428645670414, -0.039649199694395065, -0.00584252318367362, -0.03106597810983658, 0.03775878623127937, -0.07482755184173584, -0.03151529282331467, 0.030002886429429054, -0.028164302930235863, -0.015212963335216045, 0.11886988580226898, 0.11083873361349106, -0.027032863348722458, 0.08044646680355072, -0.013387531042098999, 0.20265260338783264, -0.027609068900346756, -0.07580333203077316, 0.053025927394628525, -0.0563807338476181, -0.1081416979432106, -0.16791005432605743, -0.07527891546487808, -0.07216168940067291, 0.042466823011636734, 0.036939673125743866, -0.06859804689884186, -0.16814924776554108, 0.04312079772353172, -0.04011230170726776, 0.01525977160781622, 0.02436421439051628, -0.0286419577896595, 0.000990467262454331, -0.07556978613138199, 0.10469381511211395, -0.005895999725908041, 0.03676842898130417, -0.13174369931221008, -0.05586167424917221, 0.05110920965671539, 0.019214896485209465, 0.005116515792906284, -0.11122570186853409, 0.012672217562794685, -0.21214602887630463, -0.007104185875505209, 0.02324885129928589, -0.20812109112739563, -0.10805261880159378, -0.029443219304084778, 0.015976889058947563, 0.14225360751152039, 0.08429523557424545, 0.33152705430984497, 0.31853532791137695, 0.3447044789791107, 0.10731902718544006, -0.3762505352497101, 0.002236642176285386, -0.05698302388191223, 0.00495180394500494, 0.20780722796916962, 0.06664435565471649, -0.024752136319875717, 0.09624955803155899, 0.018498286604881287, 0.019950686022639275, -0.053249284625053406, 0.08466305583715439, -0.029850108548998833, 0.10345105826854706, -0.011371936649084091, 0.1296779215335846, 0.02120269648730755, 0.10933707654476166, 0.1262298971414566, -0.0398150272667408, 0.012737213633954525, 0.032843299210071564, -0.048429712653160095, -0.0282911267131567, -0.06685397028923035, -0.005553881172090769, -0.06698384135961533, -0.06171703711152077, -0.06210535764694214, -0.07143041491508484, -0.07213620841503143, 0.03335725516080856, -0.046076711267232895, -0.06336316466331482, -0.0022355327382683754, -0.08456689119338989, -0.008130843751132488, 0.003105348441749811, -0.0191180519759655, 0.001159791718237102, 0.13688308000564575, 0.19750219583511353, 0.22526246309280396, 0.14008764922618866, 0.06589829921722412, -0.09034463763237, -0.17213252186775208, -0.11826889216899872, -0.18914608657360077, -0.009778542444109917, 0.09520214051008224, -0.007481681648641825, -0.043376997113227844, -0.08554670959711075, -0.11213085055351257, -0.17976798117160797, -0.2831222414970398, -0.15857623517513275, -0.03762916848063469, 0.2638971507549286, 0.5835537314414978, 0.5492507815361023, 0.2577713131904602, -0.2665250301361084, -0.32502010464668274, -0.06610269099473953, -0.09331019967794418, 0.004364941269159317], [0.05952879413962364, -0.0007088780403137207, 0.04288269579410553, -0.011827467009425163, 0.06840173900127411, -0.007170579396188259, -0.10625205188989639, 0.05614829808473587, -0.11998938769102097, 0.0030973399989306927, -0.05672968924045563, -0.000611002731602639, 0.07748820632696152, -0.023594273254275322, 0.0057000573724508286, 0.030619774013757706, -0.09823202341794968, 0.005511326715350151, 0.04996713995933533, 0.13854248821735382, -0.07885732501745224, 0.08164936304092407, -0.13796040415763855, 0.1137644350528717, 0.03308390453457832, -0.04164482653141022, 0.13002759218215942, 0.05682908743619919, -0.04306238144636154, 0.10133583098649979, -0.06565679609775543, 0.07858814299106598, -0.06859566271305084, 0.34359028935432434, -0.07998757809400558, 0.10860711336135864, 0.07772437483072281, 0.11689019203186035, 0.08024629205465317, -0.18177804350852966, 0.03350071609020233, 0.1776055097579956, -0.018964119255542755, -0.07338929176330566, 0.1990167498588562, -0.021156974136829376, 0.08873996138572693, -0.14253468811511993, -0.20713010430335999, -0.10243269056081772, -0.1619420200586319, -0.2547234296798706, -0.09461436420679092, -0.08274626731872559, -0.18026500940322876, -0.3586094379425049, -0.2619105577468872, -0.1807895004749298, -0.042638394981622696, 0.06126827001571655, 0.2109304666519165, 0.29909226298332214, 0.1354467123746872, 0.012201336212456226, 0.09779872745275497, 0.012405110523104668, -0.13827797770500183, -0.07511135935783386, -0.09262912720441818, -0.04076388478279114, -0.025522703304886818, -0.007859704084694386, -0.024860812351107597, -0.12832286953926086, -0.13330823183059692, -0.060907136648893356, -0.14718739688396454, 0.011993416585028172, -0.0420239232480526, -8.789710409473628e-05, 0.1170366182923317, 0.036239542067050934, -0.023001205176115036, -0.011493388563394547, 0.13471898436546326, 0.06096820905804634, 0.1166142001748085, 0.028138022869825363, 0.06300222873687744, 0.1726551204919815, 0.041509583592414856, 0.0908835232257843, 0.03226001560688019, -0.02226772904396057, 0.07221400737762451, 0.07784976810216904, -0.006152360700070858, -0.04515864700078964, -0.05121481046080589, -0.007691677194088697, -0.003499002428725362, 0.13385392725467682, 0.2506200075149536, 0.30138465762138367, 0.3320208191871643, 0.36248359084129333, 0.36150386929512024, 0.4211725890636444, 0.2489522099494934, 0.13116316497325897, -0.04674737527966499, -0.22986441850662231, -0.25962650775909424, -0.4416361153125763, -0.2645430862903595, -0.24125708639621735, -0.2143215835094452, -0.23364192247390747, -0.346473753452301, -0.3561738133430481, -0.34925729036331177, -0.07634834945201874, 0.12256494164466858, 0.16891859471797943, 0.36962568759918213, 0.19412370026111603, 0.15277840197086334, -0.028903260827064514], [-0.04719438776373863, -0.15084309875965118, -0.045612581074237823, 0.04747800901532173, -0.045815665274858475, 0.008746652863919735, 0.015900427475571632, -0.07649075984954834, -0.1105644628405571, -0.07106810063123703, -0.008343308232724667, 0.06560815125703812, 0.004961468279361725, -0.042963139712810516, 0.0066163185983896255, 0.07460594922304153, -0.18214021623134613, -0.0725301131606102, 0.02398260124027729, -0.03426986187696457, 0.023907119408249855, -0.1071440726518631, -0.0044465260580182076, -0.0026204457972198725, -0.11561048030853271, -0.017057809978723526, -0.022273840382695198, -0.20983092486858368, -0.029370587319135666, -0.17116360366344452, 0.1481885015964508, -0.07111358642578125, -0.10722362995147705, -0.049631234258413315, -0.08308852463960648, -0.06368140876293182, -0.0016342164017260075, -0.004293684847652912, 0.006333599332720041, -0.044054582715034485, -0.054222311824560165, -0.019482446834445, -0.04952789843082428, -0.011486317031085491, -0.014014312997460365, 0.226739302277565, 0.004470388405025005, 0.10513313114643097, 0.14939823746681213, 0.14156389236450195, 0.17900781333446503, 0.15286578238010406, 0.04748885706067085, 0.14020852744579315, 0.1494506448507309, 0.2524182200431824, 0.19118697941303253, 0.27504628896713257, 0.3362261950969696, 0.2212582677602768, 0.07384584844112396, 0.04531894996762276, -0.03605670854449272, 0.026214640587568283, -0.29485639929771423, -0.08245383203029633, 0.032597146928310394, -0.13302484154701233, -0.11930391937494278, -0.14476720988750458, -0.12308910489082336, -0.08109238743782043, -0.016085293143987656, -0.17054903507232666, -0.07066062092781067, -0.08360232412815094, -0.08726011961698532, -0.0037810795474797487, -0.08937930315732956, -0.06168502941727638, -0.06716776639223099, 0.056235264986753464, 0.017804747447371483, -0.008972910232841969, 0.03758549317717552, -0.027038246393203735, -0.0363033302128315, -0.07881386578083038, 0.020852049812674522, -0.07642131298780441, -0.07175876200199127, 0.03943813964724541, -0.009902950376272202, -0.10168040543794632, 0.0219079852104187, 0.08567209541797638, -0.002010949654504657, 0.06237770989537239, -0.046226587146520615, -0.09493675827980042, -0.013012854382395744, -0.05371929332613945, -0.031731728464365005, 0.11865603178739548, -0.06598857790231705, 0.047362226992845535, -0.038954682648181915, -0.04229951649904251, -0.12568940222263336, -0.010184531100094318, -0.005444357171654701, 0.05859794840216637, 0.12282587587833405, 0.14309380948543549, 0.09753383696079254, 0.14245188236236572, -0.03766610845923424, 0.05655805394053459, 0.1529131829738617, 0.23420493304729462, 0.31215447187423706, 0.3554815948009491, 0.34002283215522766, 0.1459982842206955, 0.18232610821723938, 0.09803838282823563, 0.10389823466539383, 0.07653434574604034], [-0.009377134963870049, -0.021289022639393806, -0.03935405611991882, -0.007840362377464771, -0.046878717839717865, 0.07970114797353745, 0.0991496741771698, 0.038919612765312195, 0.04349581524729729, 0.11195210367441177, 0.040776561945676804, 0.027775850147008896, -0.08918121457099915, -0.10491199791431427, -0.07943922281265259, -0.04001440107822418, -0.10684610903263092, 0.08657798916101456, -0.08766869455575943, 0.014955094084143639, -0.1290811449289322, 0.017903130501508713, 0.13790161907672882, -0.03238151594996452, -0.08324359357357025, -0.15842220187187195, 0.016437646001577377, -0.09983079880475998, 0.04572632163763046, -0.18798302114009857, 0.18069042265415192, -0.16546732187271118, -0.0038334366399794817, -0.10109036415815353, -0.14760951697826385, -0.13861557841300964, -0.11622058600187302, -0.17145073413848877, -0.038752298802137375, -0.009183014743030071, 0.03369994834065437, -0.06358221918344498, 0.0238482728600502, -0.0928364172577858, -0.0451212115585804, 0.09531082957983017, -0.022617872804403305, 0.015458518639206886, 0.206607386469841, 0.10825114697217941, 0.15817596018314362, 0.1259133666753769, 0.1615557074546814, 0.02756960317492485, 0.020819010213017464, 0.07595067471265793, 0.0035396600142121315, 0.13634391129016876, 0.16770920157432556, 0.19967585802078247, 0.2801476716995239, 0.1383369117975235, 0.13068269193172455, 0.09831298887729645, -0.31122052669525146, -0.09729918837547302, 0.047411296516656876, 0.07170497626066208, -0.09987036883831024, -0.05323231965303421, 0.02207006886601448, -0.00264400290325284, 0.05248183757066727, 0.0207980927079916, 0.04742056131362915, 0.038230642676353455, -0.027560459449887276, -0.06548536568880081, -0.03528737276792526, -0.12389767915010452, -0.15726009011268616, -0.09071654826402664, -0.10314936935901642, -0.18178780376911163, -0.06821103394031525, -0.18095560371875763, -0.03698226436972618, -0.05161258950829506, -0.08485129475593567, -0.11688365042209625, -0.13780754804611206, -0.131333589553833, -0.17761573195457458, -0.10045913606882095, -0.09449811279773712, -0.16801083087921143, -0.14034442603588104, -0.13345499336719513, -0.02962731197476387, -0.034161023795604706, -0.10666432976722717, -0.11437339335680008, -0.11959961801767349, -0.07599379122257233, -0.03733723238110542, -0.018438054248690605, -0.044191595166921616, 0.03428017348051071, 0.04739100858569145, 0.13281437754631042, 0.15283337235450745, 0.14462940394878387, 0.24931664764881134, 0.2019163817167282, 0.18276210129261017, 0.2685352861881256, 0.14209406077861786, 0.2594330906867981, 0.270956426858902, 0.08624298870563507, 0.04916374012827873, 0.03842686861753464, 0.2249082624912262, 0.3214096426963806, 0.258932501077652, 0.10256609320640564, 0.20511534810066223, 0.033074844628572464], [0.04670706391334534, -0.041400305926799774, -0.045363690704107285, -0.05158163234591484, -0.07168680429458618, 0.07439873367547989, -0.05236329883337021, -0.1377907693386078, -0.038452114909887314, -0.026608576998114586, -0.013732349500060081, -0.07069655507802963, 0.18793746829032898, 0.10562323033809662, -0.08551305532455444, -0.24174745380878448, 0.08254028111696243, 0.1404079794883728, 0.07678429782390594, -0.15983623266220093, 0.03699027746915817, -0.26956889033317566, 0.03684426099061966, -0.17973501980304718, 0.15767766535282135, 0.30333197116851807, 0.13544531166553497, 0.3155573904514313, 0.1521143615245819, -0.09532003104686737, 0.3624132573604584, 0.2538183331489563, 0.31579092144966125, 0.18826055526733398, 0.2231147289276123, 0.04621513560414314, 0.5082902908325195, 0.1896304190158844, 0.3441191613674164, -0.011524387635290623, 0.13308332860469818, -0.14632675051689148, -0.04829169437289238, -0.21968263387680054, -0.07645775377750397, 0.12193118035793304, -0.061010852456092834, -0.18851006031036377, 0.19333688914775848, 0.1723625659942627, 0.19117654860019684, 0.08340702205896378, -0.05468462407588959, 0.10183274000883102, 0.10188351571559906, 0.13156761229038239, 0.06323390454053879, -0.026259388774633408, -0.13302254676818848, -0.3995228111743927, -0.3976767063140869, -0.32972270250320435, -0.07471159845590591, -0.23768499493598938, -0.014724000357091427, 0.05896270275115967, -0.005279062315821648, 0.056179847568273544, 0.0204461682587862, 0.09756530821323395, 0.00015972790424712002, -0.051306482404470444, 0.056955307722091675, -0.04708143696188927, 0.02006966806948185, -0.1129668727517128, 0.01164963748306036, -0.065931037068367, -0.030844910070300102, 0.02928657829761505, -0.013510687276721, 0.02428721822798252, 0.08576513081789017, -0.002403571968898177, -0.0046436660923063755, -0.005614308174699545, -0.0790991261601448, -0.07512310147285461, -0.0859636515378952, -0.0019696506205946207, -0.02767423540353775, 0.033470313996076584, 0.028973495587706566, -0.09361646324396133, 0.022342326119542122, 0.07999754697084427, 0.0681714192032814, 0.10318697243928909, 0.13829922676086426, 0.11689308285713196, 0.29239267110824585, 0.15089330077171326, 0.11006060242652893, 0.14136505126953125, 0.0013759080320596695, 0.05329466983675957, -0.0331440344452858, -0.016670284792780876, 0.056769050657749176, 0.002582404064014554, 0.01880490593612194, -0.056358661502599716, 0.03673284128308296, 0.015901194885373116, -0.05888762325048447, -0.09360074251890182, -0.23942342400550842, -0.1604648381471634, -0.1290082186460495, -0.18229159712791443, -0.16096533834934235, -0.10489323735237122, -0.021575361490249634, 0.17032493650913239, -0.036904919892549515, -0.035112686455249786, 0.08291929215192795, 0.2779160439968109], [-0.049103185534477234, 0.008773690089583397, 0.005556566175073385, 0.1018548458814621, 0.16035036742687225, 0.16976478695869446, 0.15944188833236694, 0.14414836466312408, 0.20192255079746246, 0.2912008762359619, 0.36911866068840027, 0.32447609305381775, 0.3024824559688568, 0.424068421125412, 0.2403736561536789, 0.19853127002716064, 0.31515344977378845, 0.3729712665081024, 0.3735533356666565, 0.19294820725917816, 0.03135969117283821, 0.03732171282172203, -0.03569364547729492, -0.009262537583708763, -0.2313372641801834, 0.07489942014217377, -0.06156282126903534, -0.25453218817710876, -0.2614843547344208, -0.17324823141098022, 0.1537446528673172, -0.28802037239074707, -0.12392581254243851, -0.25330546498298645, -0.42014724016189575, 0.12295080721378326, -0.03340793028473854, -0.12987008690834045, -0.30957624316215515, -0.08953317254781723, 0.20042933523654938, -0.1117047369480133, 0.1041715070605278, -0.02105068601667881, 0.009984612464904785, 0.17131875455379486, 0.18711026012897491, 0.06763914227485657, -0.16556735336780548, -0.20876319706439972, -0.021912267431616783, 0.25670698285102844, 0.1524616926908493, -0.09019418060779572, -0.023451246321201324, -0.034296415746212006, -0.011960403062403202, -0.09666573256254196, 0.02133145183324814, -0.33181512355804443, -0.2844565510749817, -0.006183778867125511, 0.07612045109272003, 0.08370760083198547, 0.10414893180131912, 0.03639364615082741, -0.0015625501982867718, 0.06478622555732727, 0.0872374102473259, 0.0662003755569458, -0.03673289343714714, -0.029777564108371735, 0.05439402163028717, -0.09251248836517334, 0.05293054133653641, -0.05625978112220764, -0.08268535137176514, 0.01930033601820469, -0.004172975197434425, -0.043579552322626114, -0.06864006072282791, 0.08822434395551682, 0.030689237639307976, -0.05854293331503868, -0.03105318360030651, 0.08266382664442062, 0.019557319581508636, -0.001910058199428022, 0.08150806277990341, 0.11274723708629608, 0.09039539098739624, 0.018843309953808784, 0.12883523106575012, 0.10453282296657562, 0.007477025967091322, 0.10992851853370667, -0.023903388530015945, 0.13088242709636688, 0.008441087789833546, 0.0007374780834652483, 0.05145116150379181, 0.0234918724745512, -0.010288428515195847, -0.021290702745318413, 0.08829692006111145, 0.016024066135287285, 0.03199325129389763, 0.09560168534517288, 0.016533128917217255, 0.012496263720095158, -0.05174347013235092, -0.011425669305026531, -0.1274612843990326, -0.22839467227458954, -0.15849395096302032, -0.07763583213090897, 0.026277074590325356, -0.09788525849580765, -0.041530560702085495, -0.1878872513771057, -0.12346184253692627, -0.047946371138095856, -0.021328391507267952, 0.050439972430467606, -0.04828229919075966, -0.24588510394096375, -0.2646333575248718, 0.06991168111562729], [-0.08807320892810822, -0.07388012111186981, -0.05354851484298706, -0.02762734331190586, 0.10928826034069061, 0.03362679108977318, 0.003276185365393758, 0.019577357918024063, 0.02348054014146328, 0.045131489634513855, 0.06775978207588196, -0.03906872868537903, 0.014432115480303764, -0.18090495467185974, -0.15623386204242706, -0.02176661603152752, -0.049286291003227234, -0.0042031267657876015, 0.1218249648809433, 0.05262773111462593, 0.05939214304089546, -0.09049304574728012, -0.18467827141284943, -0.20814940333366394, -0.09085031598806381, -0.14688727259635925, 0.03554315119981766, -0.06267224252223969, 0.1427401751279831, -0.2344179004430771, 0.06381773203611374, 0.051959872245788574, 0.1806553453207016, 0.054547492414712906, 0.23819798231124878, -0.009221281856298447, -0.14136037230491638, 0.09966996312141418, 0.25035423040390015, -0.14834268391132355, -0.0558396652340889, -0.27380362153053284, -0.04769359529018402, 0.025222118943929672, -0.14926156401634216, -0.03125279024243355, -0.2354659140110016, -0.03572792932391167, -0.06485987454652786, -0.15831387042999268, -0.09110806882381439, -0.09198915958404541, -0.13780073821544647, 0.2532745897769928, 0.050385575741529465, -0.01077432930469513, -0.0681966096162796, 0.17838211357593536, 0.15995852649211884, -0.24671509861946106, 0.010443983599543571, 0.11295666545629501, 0.24125541746616364, 0.05552499368786812, -0.07105880230665207, 0.11496854573488235, 0.13066764175891876, 0.012109666131436825, 0.15775921940803528, 0.032357148826122284, 0.03164592757821083, 0.03396647050976753, 0.0037331311032176018, 0.08384250849485397, 0.09853864461183548, 0.03764016926288605, 0.10015581548213959, 0.03034190647304058, 0.11516021192073822, 0.04251272231340408, 0.05927380919456482, 0.24079151451587677, 0.22985601425170898, 0.22459308803081512, 0.27904558181762695, 0.23295006155967712, 0.2228914052248001, 0.028584955260157585, 0.09291405230760574, -0.07520043104887009, -0.16968202590942383, -0.22236566245555878, -0.32857295870780945, -0.2012954205274582, -0.10148099809885025, -0.1399071216583252, -0.064219169318676, -0.10828081518411636, 0.03690315783023834, 0.17714589834213257, 0.19473183155059814, 0.2120589166879654, 0.08934134989976883, 0.16736753284931183, 0.06234101206064224, -0.03760337457060814, -0.11218627542257309, -0.23702777922153473, -0.2586538791656494, -0.23999975621700287, -0.06976389139890671, -0.0026431225705891848, -0.023851098492741585, -0.023427193984389305, -0.036598339676856995, -0.0017827353440225124, -0.021563079208135605, -0.02454572170972824, -0.10189911723136902, 0.057322125881910324, 0.1609504073858261, 0.15985387563705444, 0.1699187457561493, -0.08051197975873947, 0.08909106254577637, 0.30935195088386536, 0.26432546973228455, 0.19796182215213776], [0.09662441164255142, 0.15432865917682648, 0.060408879071474075, 0.01307548489421606, 0.06593527644872665, 0.0005238796584308147, -0.11409012228250504, -0.07608535885810852, 0.06669389456510544, -0.02274429239332676, 0.11425279080867767, -0.029992936179041862, 0.10035696625709534, 0.030090104788541794, -0.04549095407128334, 0.0030859801918268204, 0.032357197254896164, 0.09725998342037201, -0.0578770637512207, 0.0892900601029396, 0.044384345412254333, 0.15541169047355652, 0.06623522937297821, 0.12162087112665176, 0.11987286806106567, 0.008079778403043747, -0.028445975854992867, 0.25711730122566223, 0.13209986686706543, 0.0379217155277729, -0.0427883006632328, -0.024229619652032852, 0.0014689669478684664, -0.19116955995559692, -0.40381279587745667, -0.11441586911678314, 0.14691561460494995, 0.06792572885751724, 0.05665216222405434, -0.2088284194469452, -0.15024365484714508, -0.022320890799164772, -0.1332973837852478, -0.13302631676197052, -0.051307082176208496, -0.11088810116052628, -0.12635274231433868, 0.07593299448490143, -0.14132572710514069, -0.1371149867773056, 0.007855012081563473, 0.012822868302464485, 0.020485123619437218, -0.05028429999947548, 0.03201740235090256, 0.02452380396425724, -0.08523290604352951, -0.00962097104638815, 0.003926078323274851, -0.1720445603132248, 0.17945443093776703, 0.06819514185190201, -0.07906894385814667, 0.061752885580062866, -0.010651519522070885, 0.08392643928527832, 0.15040703117847443, 0.09381486475467682, 0.029778191819787025, 0.14006854593753815, 0.15079748630523682, 0.15775834023952484, 0.06429076939821243, 0.13752339780330658, 0.04551278427243233, 0.175661101937294, 0.18054823577404022, 0.11514059454202652, 0.029130026698112488, 0.032136715948581696, 0.06287813186645508, 0.14022888243198395, 0.13303765654563904, 0.2891859710216522, 0.2351655215024948, 0.20833882689476013, 0.233153834939003, 0.1464797705411911, 0.14159154891967773, 0.19858519732952118, 0.24963347613811493, 0.3639885187149048, 0.30387476086616516, 0.2001907229423523, 0.16725526750087738, 0.11676454544067383, 0.04390338063240051, 0.1494063138961792, 0.11374531686306, -0.06309843063354492, -0.03934799134731293, -0.02394404634833336, 0.06132375821471214, 0.10149231553077698, -0.02222094126045704, 0.03057790733873844, 0.023497456684708595, 0.12253823131322861, -0.011337644420564175, -0.07228411734104156, -0.07200534641742706, -0.15652038156986237, -0.2604166269302368, -0.2403794676065445, -0.11643875390291214, -0.07745768874883652, -0.006595648359507322, -0.006289420183748007, 0.021427258849143982, 0.07390143722295761, -0.029406173154711723, -0.11126886308193207, -0.003679633606225252, 0.044776931405067444, 0.04501023516058922, 0.22619082033634186, 0.1693142056465149, 0.113323874771595], [-0.0924907699227333, -0.1017218604683876, -0.044443707913160324, 0.004990405403077602, 0.05928933992981911, 0.025559132918715477, 0.05514061078429222, 0.0703226774930954, 0.09109752625226974, -0.011730697937309742, -0.07974960654973984, 0.018603572621941566, -0.11144138127565384, 0.05041460320353508, 0.083894282579422, -0.11789379268884659, -0.1487273871898651, -0.023380227386951447, 0.015568875707685947, -0.12529148161411285, -0.12975871562957764, -0.10805167257785797, -0.014785491861402988, 0.02098040282726288, -0.15125632286071777, -0.2445034384727478, 0.013831707648932934, 0.009344174526631832, -0.08566558361053467, -0.04076273739337921, -0.005942618008702993, 0.026817314326763153, 0.037445344030857086, 0.11951044201850891, -0.029574427753686905, 0.2477765530347824, 0.09936671704053879, 0.05763639137148857, -0.00797276385128498, 0.05196309834718704, 0.17430871725082397, 0.17091315984725952, 0.0833706483244896, 0.25311553478240967, 0.15154041349887848, 0.06521684676408768, 0.040539029985666275, 0.005916211754083633, -0.18477603793144226, -0.012516718357801437, -0.10592097789049149, -0.1144498661160469, -0.020635629072785378, -0.083687923848629, 0.015417329967021942, 0.06539883464574814, 0.025217555463314056, -0.10272904485464096, 0.011898345313966274, -0.07887107878923416, 0.09621773660182953, 0.04759536683559418, -0.031133782118558884, 0.027399832382798195, 0.199971541762352, -0.06484444439411163, -0.061496902257204056, -0.06535287946462631, 0.0159556083381176, 0.015316375531256199, -0.11211489140987396, -0.018926452845335007, -0.0840885192155838, 0.004708952736109495, -0.025248242542147636, -0.10387732088565826, -0.08634255826473236, -0.1760687530040741, -0.2304413914680481, -0.25144314765930176, -0.23664160072803497, -0.27463439106941223, -0.19356250762939453, -0.19418030977249146, -0.14620660245418549, -0.17389443516731262, -0.20673052966594696, -0.35297462344169617, -0.252661794424057, -0.2406897097826004, -0.20535767078399658, -0.04643286392092705, -0.11552470177412033, -0.0320051871240139, 0.06880147755146027, 0.05281979590654373, 0.10309145599603653, 0.03911861777305603, 0.20019425451755524, 0.19159026443958282, 0.3104265034198761, 0.5361684560775757, 0.5934943556785583, 0.5798217058181763, 0.4729389250278473, 0.3314533829689026, 0.354520708322525, 0.3419966399669647, 0.18968519568443298, -0.0009146069642156363, 0.15881463885307312, -0.12102029472589493, -0.07616261392831802, -0.18163621425628662, -0.06176904961466789, -0.09375682473182678, -0.007330609019845724, 0.0887083038687706, -0.0003071109240408987, -0.07897917181253433, -0.04019537568092346, 0.17901122570037842, 0.06093524768948555, -0.10566206276416779, 0.0995640680193901, -0.07979458570480347, -0.02962818741798401, -0.09726870805025101], [0.01765991747379303, 0.048741236329078674, -0.011909701861441135, 0.02655920572578907, -0.03206982836127281, -0.04467049986124039, -0.044208794832229614, -0.0717831403017044, -0.038589976727962494, 0.03940041735768318, 0.030987674370408058, 0.1010875329375267, 0.10812363028526306, 0.02164815180003643, -0.016932565718889236, -0.0479922853410244, 0.0007851758855395019, 0.04436374083161354, -0.005744997877627611, 0.0651441439986229, 0.25502797961235046, 0.013241586275398731, -0.07476264983415604, 0.09604712575674057, 0.12401598691940308, -0.02936442755162716, 0.2132997363805771, 0.10264638811349869, -0.06358899176120758, -0.15293630957603455, -0.05622202530503273, -0.12872494757175446, -0.13238687813282013, -0.014341672882437706, 0.11471017450094223, -0.08438769727945328, 0.15656913816928864, 0.0001911854778882116, 0.1506226509809494, 0.0960220918059349, -0.015412780456244946, 0.05692823976278305, -0.09525534510612488, -0.11555725336074829, -0.13150669634342194, 0.09963478893041611, -0.011678626760840416, -0.17119009792804718, 0.25762495398521423, 0.1792365163564682, 0.10090018808841705, -0.06122179329395294, -0.15769782662391663, -0.06756477057933807, -0.22590626776218414, 0.05757344886660576, 0.04997263103723526, 0.013559354469180107, 0.01964208111166954, 0.00936984270811081, -0.04101980850100517, -0.2713204622268677, -0.07827811688184738, 0.14044718444347382, -0.16947828233242035, -0.03175221011042595, 0.020701728761196136, 0.1029869094491005, 0.0030927543994039297, 0.14263464510440826, 0.15683269500732422, 0.13940978050231934, 0.20597003400325775, 0.08487439155578613, 0.16633203625679016, 0.17813442647457123, 0.03406253084540367, 0.02805999480187893, 0.034063298255205154, 0.07880204916000366, 0.06211165338754654, 0.18565508723258972, 0.20360088348388672, 0.27797943353652954, 0.11142478883266449, 0.1844700276851654, 0.19716794788837433, 0.16588935256004333, 0.17173895239830017, 0.2301054745912552, 0.17534303665161133, 0.10784627497196198, 0.14738400280475616, 0.014100716449320316, -0.09769432991743088, 0.07805362343788147, 0.13369940221309662, 0.19287168979644775, 0.1847376823425293, 0.3040938377380371, 0.2192084789276123, 0.32859623432159424, 0.33004844188690186, 0.2253982126712799, 0.014880495145916939, -0.1344078779220581, 0.005230405833572149, -0.12408682703971863, -0.1070447713136673, 0.015130764804780483, 0.023488705977797508, 0.1564982384443283, 0.1253056824207306, 0.24598915874958038, 0.2774510085582733, 0.12767136096954346, 0.0409584641456604, 0.13894478976726532, 0.011094131506979465, 0.01939648948609829, 0.09070222079753876, 0.029396051540970802, -0.1463538408279419, -0.12712079286575317, -0.05007923021912575, -0.1635851413011551, -0.08448455482721329, -0.07923740893602371], [0.062278054654598236, -0.0061011165380477905, -0.02546786516904831, 0.048868659883737564, 0.042429808527231216, -0.04240116849541664, -0.08464591205120087, -0.027265312150120735, -0.04150820150971413, 0.009121159091591835, -0.08030722290277481, -0.1225399374961853, -0.06862705945968628, -0.08614040166139603, -0.15852239727973938, -0.20472033321857452, -0.030833307653665543, -0.03542695567011833, 0.016108639538288116, 0.012201179750263691, 0.0850292444229126, -0.010827508755028248, -0.03805974870920181, -0.13600818812847137, -0.06335892528295517, -0.23626704514026642, -0.4202440083026886, -0.10706399381160736, 0.14835360646247864, 0.2627677619457245, 0.06735007464885712, 0.024878237396478653, 0.040954358875751495, 0.222178652882576, 0.2900739312171936, 0.3763766586780548, -0.03518683835864067, 0.03192483261227608, 0.26263847947120667, -0.005463216453790665, 0.0955178514122963, 0.11591287702322006, 0.2697172462940216, 0.21078217029571533, -0.017741821706295013, -0.052548110485076904, -0.0824819877743721, -0.12960600852966309, 0.18776144087314606, 0.11812225729227066, 0.06557125598192215, -0.1773042380809784, -0.20283447206020355, 0.058854080736637115, -0.014947210438549519, -0.12253670394420624, 0.0006552005070261657, -0.07995079457759857, -0.2908369302749634, -0.29280778765678406, -0.1318289190530777, 0.08759273588657379, 0.02326822094619274, -0.01757245510816574, 0.23890268802642822, -0.2242165356874466, -0.15343859791755676, -0.20501185953617096, -0.23320704698562622, -0.15258300304412842, -0.21360711753368378, -0.182112917304039, -0.24572689831256866, -0.1877054125070572, -0.23549310863018036, -0.1808459460735321, -0.2009461373090744, -0.2561022937297821, -0.22168830037117004, -0.12433113902807236, -0.17943371832370758, -0.0650886669754982, -0.16934461891651154, -0.09920348227024078, -0.017358193174004555, -0.13171154260635376, -0.017978385090827942, 0.030183732509613037, 0.0735153779387474, 0.16874772310256958, 0.23106680810451508, 0.19745437800884247, 0.1358727365732193, 0.2554868161678314, 0.1251353621482849, 0.24574731290340424, 0.21273143589496613, 0.36234572529792786, 0.41495394706726074, 0.48823192715644836, 0.6067553758621216, 0.4280756115913391, 0.48107069730758667, 0.39826229214668274, 0.1621050238609314, 0.06412249803543091, 0.07986197620630264, -0.013754225336015224, -0.015574032440781593, 0.028059059754014015, 0.04167050123214722, 0.029813995584845543, 0.00890788808465004, 0.182218998670578, 0.018968408927321434, -0.07056275755167007, -0.17149069905281067, -0.15913711488246918, -0.27258962392807007, -0.2989426553249359, -0.10076143592596054, -0.033476341515779495, -0.10892831534147263, -0.1563398391008377, -0.15857596695423126, -0.07727465033531189, -0.06175612658262253, 0.08338508754968643], [0.08086463809013367, -0.008205855265259743, 0.11521530151367188, 0.006659180391579866, 0.006301391404122114, -0.03371884301304817, 0.060561440885066986, -0.0719125047326088, -0.06338558346033096, 0.006249455735087395, -0.03613179549574852, -0.047808315604925156, 0.040664948523044586, -0.020339634269475937, -0.06696898490190506, 0.07983994483947754, 0.04429693892598152, 0.09148430079221725, -0.09198740124702454, -0.09248440712690353, -0.15898273885250092, -0.09988999366760254, 0.03643909841775894, -0.18995985388755798, 0.08598541468381882, -0.056353140622377396, -0.16382089257240295, 0.2146206945180893, -0.10138296335935593, 0.015984203666448593, 0.07086938619613647, -0.31675779819488525, -0.21252654492855072, -0.1949073076248169, 0.028424527496099472, 0.38767996430397034, -0.19002610445022583, 0.07100515067577362, 0.009845520369708538, -0.12755875289440155, -0.13665539026260376, -0.02119298093020916, 0.2347804754972458, 0.38456618785858154, 0.15909989178180695, 0.33056575059890747, 0.019664155319333076, 0.1127433329820633, 0.11447153240442276, -0.017153926193714142, -0.08754457533359528, -0.03154467046260834, -0.025619274005293846, -0.1116122230887413, 0.11199899762868881, -0.004573776386678219, 0.07542788982391357, -0.07681945711374283, 0.2666168212890625, -0.09678392112255096, 0.07896346598863602, -0.0014407896669581532, 0.08303390443325043, -0.04438680037856102, -0.10198366641998291, 0.18508270382881165, 0.19013994932174683, 0.07384110987186432, 0.1575581580400467, 0.18419261276721954, 0.03972587734460831, 0.18873810768127441, 0.20648673176765442, 0.14075088500976562, 0.14376330375671387, 0.19270507991313934, 0.18240781128406525, 0.0812559649348259, 0.14208625257015228, 0.0312969833612442, 0.11464725434780121, 0.16109754145145416, 0.21423445641994476, 0.09089700132608414, 0.09657163918018341, 0.18323415517807007, 0.07970695942640305, -0.03042813204228878, -0.060280606150627136, -0.1881490796804428, -0.0921546220779419, -0.2055869847536087, -0.31235629320144653, -0.32023313641548157, -0.24184982478618622, -0.2430267035961151, -0.2433672845363617, -0.20746980607509613, -0.08469261229038239, -0.09957846254110336, -0.04798353463411331, -0.10299166291952133, -0.06353971362113953, 0.03773733973503113, 0.18793563544750214, 0.1988314390182495, 0.21629559993743896, 0.23928095400333405, 0.1814371645450592, 0.16754810512065887, 0.07682041823863983, -0.0077353897504508495, -0.12581248581409454, -0.12350011616945267, -0.1331351399421692, 0.0018655885942280293, -0.05904094874858856, 0.051685187965631485, 0.022860314697027206, -0.09416787326335907, -0.04314497858285904, 0.04194421321153641, 0.2030062973499298, 0.17804525792598724, 0.21468187868595123, 0.07683073729276657, -0.1220124289393425, -0.10157863795757294], [-0.08151045441627502, -0.06315930187702179, -0.042146384716033936, -0.03055119514465332, -0.09364359825849533, 0.025906363502144814, 0.014692303724586964, -0.06222730129957199, 0.0380258671939373, 0.14983394742012024, 0.05156657472252846, 0.013618365861475468, 0.09828746318817139, 0.040033891797065735, -0.06223459914326668, -0.3075433373451233, -0.17231255769729614, -0.03595047444105148, 0.044757578521966934, -0.11472681909799576, 0.07515330612659454, -0.08398206532001495, -0.004626252222806215, -0.07005259394645691, 0.01701558195054531, 0.17454831302165985, 0.09848036617040634, 0.24998483061790466, 0.09865409880876541, 0.028630375862121582, 0.066379614174366, -0.1032014861702919, 0.18954254686832428, -0.01381456758826971, -0.005863585509359837, 0.07480627298355103, 0.03498071804642677, -0.1650284081697464, 0.026272401213645935, -0.03906332328915596, -0.10108964145183563, 0.1597086638212204, 0.03760067746043205, -0.00822273176163435, -0.050645552575588226, 0.28186723589897156, 0.08743836730718613, 0.006376456469297409, 0.01786637306213379, 0.034705713391304016, -0.010026553645730019, -0.020587921142578125, -0.14284054934978485, -0.16374088823795319, -0.09441421926021576, -0.12609179317951202, 0.0006120293983258307, -0.2021046280860901, -0.04848167672753334, 0.04345548152923584, -0.016730353236198425, -0.09511829167604446, 0.023278547450900078, 0.0005867276340723038, 0.04911215975880623, 0.13320092856884003, 0.14418892562389374, 0.11666541546583176, 0.09836894273757935, 0.08613459020853043, 0.03542514890432358, -0.02015935815870762, 0.09527072310447693, 0.04299859330058098, 0.058799900114536285, 0.0637281984090805, 0.025988340377807617, 0.03394054248929024, -0.02895542047917843, 0.03466096520423889, 0.023908650502562523, -0.011664649471640587, 0.027688043192029, -0.017042970284819603, 0.06069567799568176, 0.10474345833063126, 0.05064086616039276, 0.08277636021375656, -0.04875447228550911, -0.056168023496866226, 0.017779383808374405, -0.04639815911650658, -0.06346771866083145, -0.10324965417385101, -0.030620714649558067, 0.028543587774038315, -0.0933123379945755, -0.12244805693626404, -0.045679736882448196, -0.13578948378562927, -0.04478457197546959, -0.012537915259599686, -0.07498743385076523, -0.10656619071960449, 0.012148533016443253, -0.1162877306342125, -0.1204705759882927, -0.14941449463367462, -0.11138080060482025, -0.08472464978694916, 0.024335799738764763, -0.07043930888175964, 0.03131852671504021, -0.006158432457596064, 0.020877642557024956, -0.03435511142015457, -0.08635313808917999, -0.08085323870182037, -0.0001785739150363952, -0.004956881515681744, 0.0797654464840889, 0.05032616853713989, 0.08264880627393723, 0.13700991868972778, -0.07317808270454407, -0.0728326216340065, -0.1264653354883194, 0.03338813781738281], [0.012488520704209805, 0.039053838700056076, 0.03900442644953728, -0.08692323416471481, -0.005530952010303736, -0.08938359469175339, 0.07382720708847046, 0.11867574602365494, 0.16475647687911987, 0.07800403237342834, 0.035834699869155884, -0.07307743281126022, -0.07051660865545273, -0.03970684856176376, -0.06200353801250458, 0.1109887883067131, 0.22086556255817413, 0.002744107972830534, 0.05149322375655174, -0.12135661393404007, -0.06967423856258392, -0.11133363842964172, -0.1917373687028885, 0.03327789157629013, 0.3587237000465393, 0.2834766209125519, -0.18126444518566132, 0.024273816496133804, 0.3641583025455475, 0.062378890812397, 0.09240485727787018, 0.19598044455051422, 0.15963400900363922, 0.5421531200408936, 0.11102110892534256, 0.018852539360523224, 0.07293812185525894, 0.25511273741722107, 0.32596930861473083, 0.2166317105293274, -0.10527235269546509, 0.2772674858570099, -0.10128343850374222, 